0.00265947 0.0960639 -0.000248316 -0.0253038 0.017714 0.0119913 0.0248656 0.0159464 -0.00400994 0.0915908 -0.016625 -0.000108829 0.063462 0.0217205 0.00183447 0.0450511 
-0.228742 -0.115992 0.641714 -0.201499 0.211356 0.427621 -0.0875582 0.167388 -0.0139445 0.179404 -0.0739895 0.660955 0.164053 -0.174756 -0.0304179 0.49388 
0.119276 0.562801 -0.0424377 -0.298595 0.0177492 0.0562137 -0.159113 -0.00864015 -0.35222 0.264387 -0.376087 -0.06006 0.40433 -0.0918671 0.100063 -0.0915575 
0.308162 0.270547 -0.062066 0.43196 0.467596 -0.210315 0.275438 0.0493026 -0.00336428 0.407324 0.0158418 -0.0231467 0.428527 0.358831 0.0659135 0.139988 
-0.798272 -0.699642 1.05155 -0.681125 -0.766978 1.16658 -0.345135 1.13133 -0.368967 -0.639894 -0.299504 0.936231 -0.797779 -0.336798 -0.448447 -0.742039 
0.140364 -0.0446177 -0.0242315 0.0844612 -0.00499508 -0.0349877 -0.0432494 -0.0704094 0.0726117 -0.0809435 0.0847764 0.0420182 0.0601414 -0.0176028 -0.0132556 0.0191245 
0.496285 0.700889 -0.220719 -0.0852068 0.128465 -0.247845 0.056089 -0.0272377 -0.237046 0.180009 -0.307532 -0.322821 0.387489 0.0580114 0.0936085 -0.225588 
-0.0542995 0.0174328 0.162882 -0.110719 0.0757096 0.139765 -0.110065 0.0197974 0.0176239 0.147278 -0.0134478 0.261644 0.0838124 -0.0866136 -0.0210588 0.290653 
0.0249281 0.00424346 0.171316 -0.100111 -0.0282509 0.117518 -0.0529122 0.06428 -0.0866013 -0.0685202 -0.0552941 0.0930496 0.00696822 -0.0193955 0.0607555 -0.0863559 
-0.0217879 0.0614138 0.0675544 -0.0674943 0.031441 0.0515096 -0.0589681 -0.0298074 -0.0401085 0.0513019 -0.0474064 0.061347 0.102142 -0.0387592 0.0180462 0.0783373 
-0.0140577 0.0209535 0.0170279 -0.0362083 -0.018533 0.0177708 -0.0333749 -0.00163098 0.0208268 0.000568233 0.00830919 -0.00503444 0.0231708 0.00733046 0.00992893 0.0323863 
0.000645807 0.0903376 0.0114715 -0.115494 -0.0246156 0.0890453 -0.00463214 0.00977796 0.00475938 0.0127143 0.00264891 -0.0102945 0.0156985 0.0116342 0.0672467 -0.0158882 
-0.219546 0.119357 0.263746 -0.268372 -0.0998233 0.44161 0.0958439 0.607058 -0.152239 -0.00774842 -0.20031 0.122207 -0.264036 0.105189 -0.0815707 -0.442843 
0.0477583 -0.0767863 0.0757607 0.0648519 -0.00153972 0.00286219 -0.199411 -0.0724603 0.0814515 0.0482307 0.155189 0.255876 0.0294655 -0.158786 -0.168585 0.295674 
-0.163575 -0.0921475 0.265685 -0.156218 -0.0776892 0.242078 -0.186789 0.211035 -0.130397 0.0124973 -0.152744 0.198806 -0.0262858 -0.138271 -0.0664791 0.0412504 
-0.343767 0.227084 -0.0078929 -0.035616 -0.0121318 0.365422 0.314083 0.479906 0.231174 -0.0157732 0.29532 0.0318326 -0.217485 0.402727 0.112362 -0.159014 
-0.0393964 0.163949 -0.0284174 -0.0880696 -0.0991675 0.208438 0.0954292 0.131865 0.323428 -0.0459364 0.2658 -0.00659067 -0.102532 0.12831 0.116834 -0.0106376 
0.16501 0.0236362 0.0511638 0.157387 0.066102 -0.0939983 0.104155 -0.0494671 -0.0294619 -0.000579583 0.0073199 -0.0691121 0.181912 0.0824539 0.231333 -0.015424 
0.241786 0.121883 0.0869891 0.0490209 0.0407206 -0.0194855 0.107546 -0.0978761 0.0032401 -0.146958 0.0840577 -0.0497568 0.190498 0.0711237 0.290656 -0.0249239 
0.776956 0.802164 -0.771292 0.0687401 -0.789868 0.304422 -0.147352 -0.400402 1.10454 -0.467022 1.06575 0.432028 -0.634759 -0.0355363 0.0454774 0.634772 
-6.15985e-05 2.99587e-05 -6.14391e-05 0.000153666 6.38857e-05 -5.34297e-05 -2.12898e-05 4.85561e-05 -0.000209419 2.22291e-05 -7.47721e-05 -3.14201e-05 -8.37497e-06 -9.93139e-05 -2.21362e-05 7.50641e-05 
-0.0690097 0.0501951 -0.0473791 0.159842 0.283312 -0.140685 0.10665 0.138702 -0.107691 0.286769 -0.10363 0.00365478 0.116953 0.0860782 -0.0911124 -0.0339599 
0.0193097 -0.101617 0.0257712 0.048249 -0.0398187 0.0509141 -0.0145615 0.0410168 0.0412725 -0.0506134 0.0325154 0.11964 -0.072996 -0.0101115 -0.044883 -0.0300493 
0.38122 0.138023 -0.17433 0.027137 -0.24738 -0.12563 -0.227647 -0.192202 0.0829164 -0.207954 0.212815 0.0426325 0.0455958 -0.18714 0.0168871 -0.0118766 
-0.00655193 -0.0128069 0.0137456 0.0280712 0.0501992 -0.0396976 0.0603501 0.0134757 -0.0443857 0.0172814 -0.0414602 -0.0223237 0.0196069 0.040836 0.000546686 -0.0293546 
0.217918 0.389501 -0.149488 0.512845 0.340608 -0.198049 0.330417 0.336396 -0.188962 0.369861 -0.174798 -0.315924 0.170976 0.293938 -0.0322215 -0.363997 
-0.334852 0.0372426 0.307838 0.04814 0.105343 0.375349 0.291439 0.821463 -0.117687 0.205917 -0.198581 0.0263377 -0.108595 0.271629 -0.158793 -0.344285 
-0.127858 -0.0521873 0.242418 0.00127641 -0.168926 0.457002 0.260118 0.361196 0.319601 -0.344109 0.359023 0.0143525 -0.303602 0.271133 0.238434 -0.198032 
-0.244677 -0.174648 0.232866 -0.135669 -0.00701008 0.234893 -0.0513644 0.361158 -0.152089 0.016849 -0.226523 0.216053 -0.142876 -0.117369 -0.120348 -0.198966 
0.0267787 0.0495855 -0.0460468 0.0766032 0.0778406 -0.0583959 0.0476574 0.0597966 -0.0752674 0.125774 -0.0254637 -0.0666477 0.0233586 0.0551036 -0.0676939 -0.0638371 
0.0169436 -0.148058 0.259789 0.255147 0.277443 -0.0653488 0.387757 -0.124086 0.0302679 -0.0669273 0.0972299 -0.0867186 0.203589 0.243357 0.328236 0.026417 
-0.0133472 -0.074726 0.0363608 0.00857119 -0.0227896 0.0370596 -0.0700804 0.038419 0.0122222 -0.0122271 -0.00260818 0.0340164 -0.0776333 -0.0728657 -0.0588585 0.0161403 
0.0670134 -0.11888 -0.0236508 0.104903 0.0022204 -0.0310926 -0.0295598 -0.0676405 0.0831662 -0.026455 0.129288 0.0517461 -0.0182661 -0.0222508 -0.0198569 0.115331 
-0.00798194 0.0195727 -0.0192369 0.0133584 0.0150992 -0.00609399 0.00335086 0.0132129 -0.0272387 0.0344815 -0.0136268 -0.00964792 0.0123975 0.0148458 -0.0116878 -0.0165074 
0.121819 -0.149109 0.1684 0.18987 0.0810483 -0.0589974 0.11101 -0.108033 0.1067 -0.10812 0.130438 0.0627626 0.0698693 0.0876182 0.114297 0.108947 
-0.140199 -0.230007 0.409116 -0.198504 -0.0977869 0.469856 -0.072034 0.431766 0.0862357 -0.0991739 0.0550781 0.342309 -0.158958 -0.0790649 -0.0943239 -0.00904349 
-0.0381404 0.134655 0.00202553 -0.134104 -0.0473061 0.0766336 0.0284153 0.0437495 0.146954 -0.0832033 0.115131 -0.073162 -0.0823368 0.0669858 0.0567253 -0.0210244 
-0.0101051 -0.0128135 0.158883 0.0804315 0.137419 0.0206124 0.0941892 -0.0582299 0.00615692 0.0139782 0.0289169 0.0592204 0.143923 0.0577042 0.139499 0.158367 
-0.328759 0.299439 0.538497 -0.276115 0.413233 0.570899 -0.133145 0.451264 -0.292173 0.590639 -0.348184 0.516062 0.490425 -0.169243 0.0634187 0.401952 
-0.0591699 0.198101 0.16444 0.103511 0.126632 0.381337 0.105816 0.371849 0.444926 0.181758 0.515544 0.354437 0.0550673 0.142958 0.065005 0.378314 
-0.42041 -0.556569 0.740076 -0.200411 -0.256306 0.754634 -0.269106 0.874766 -0.265913 -0.145176 -0.334064 0.578413 -0.398995 -0.221709 -0.465159 -0.280447 
-0.0404774 0.0495742 0.275389 0.0378307 -0.0714824 0.508366 0.00180871 0.680935 0.306668 0.181087 0.296674 0.533632 -0.220003 -0.0157034 -0.143372 0.176026 
0.0846603 0.0640871 -0.0302874 -0.0449992 -0.025384 -0.00816109 -0.0282753 -0.0429487 -0.0219988 0.00358837 -0.0318198 -0.0141611 0.0783345 -0.0334691 0.0497099 0.00623423 
-0.0339558 0.00241436 0.0699558 -0.0398484 -0.0510278 0.116844 0.00739241 0.118533 0.0451571 -0.061939 0.0170264 0.0279521 -0.0766749 0.0261041 -0.0228051 -0.0159147 
-0.0841568 0.24681 0.0520479 -0.173101 -0.0434954 0.290759 0.0642816 0.105474 0.0768437 -0.0294283 0.133818 -0.00468663 0.00726636 0.0638262 0.115787 0.0278785 
0.187631 -0.151697 0.46346 0.314457 0.433664 0.0845728 0.486675 -0.101637 0.265 -0.0649989 0.284797 0.101286 0.463113 0.378777 0.634021 0.36101 
0.0909951 0.110814 -0.01964 -0.0372485 0.0139009 -0.0313056 0.00750169 -0.118644 -0.00795694 -0.0347603 -0.0126482 -0.0973465 0.0804589 0.00195399 0.0724353 -0.0474961 
0.00402493 -0.0943383 0.167711 0.323698 0.272805 -0.0286891 0.343883 0.0188055 0.079482 0.0319919 0.155092 -0.0944966 0.180934 0.303029 0.152475 -0.0538919 
0.177609 -0.139282 0.0709299 0.133506 -0.195063 0.159997 -0.0301508 0.221871 0.18603 -0.194889 0.267511 0.195077 -0.264985 -0.050322 -0.0829388 -0.000124351 
-0.00485158 0.012781 -0.0196688 0.0148116 0.0031956 -0.00534039 0.00861771 0.0164815 0.000114968 0.0304745 0.00249808 -0.00182665 0.00989054 0.0060167 -0.0197578 -0.021619 
0.118557 -0.282328 0.325185 0.366394 0.240955 -0.0645913 0.338438 -0.212502 0.136945 -0.169538 0.214336 0.0713247 0.23388 0.205426 0.354291 0.164958 
-0.615957 0.812749 -0.373271 -0.525157 -0.419237 0.858852 0.735121 0.891693 0.881677 -0.359031 0.851379 -0.517104 -0.401953 0.808386 0.711894 -0.444425 
-0.124991 0.0473574 -0.269404 0.476973 0.200577 -0.139148 -0.147356 0.594644 0.0927891 0.631011 0.102522 0.123878 -0.271268 0.0779892 -0.600856 -0.0218892 
0.00823971 0.00933768 0.000710491 -0.000943064 0.00428641 -0.0117396 -0.0189401 -0.0157926 -0.00909153 0.00421012 0.00433091 0.00554144 0.00844466 -0.00264208 -0.00556259 0.00796285 
0.291409 -0.169219 0.335326 0.171185 0.0822793 0.0686814 0.175088 -0.145752 0.0553809 -0.246973 0.0349366 0.0120317 0.210916 0.0503567 0.285923 -0.0485905 
0.166345 0.0588228 0.0503253 -0.067544 -0.105513 0.0912586 -0.128954 0.0694661 0.0403492 -0.0664588 0.0484697 0.0795153 -0.0187293 -0.0956412 0.0231604 -0.00157082 
0.144706 0.265177 -0.19839 0.240374 0.310546 -0.253624 0.171648 0.189565 -0.250056 0.451573 -0.242598 -0.206886 0.206952 0.184655 -0.246892 -0.281716 
0.190572 0.197608 0.0487652 -0.0368934 -0.0483043 0.0610922 -0.133033 0.0170787 0.0923074 0.0375905 0.0267793 0.197302 0.098332 -0.143358 -0.00952778 0.160337 
-0.162771 0.274348 -0.0864983 -0.161903 -0.14906 0.360765 0.191574 0.18095 0.449777 -0.114122 0.515826 0.0452846 -0.193626 0.157196 0.192702 0.165165 
0.210272 -0.0653518 0.125818 0.0621299 -0.163223 0.152937 -0.305375 0.0927548 0.0835257 -0.0180403 0.0575417 0.302836 -0.10388 -0.171177 -0.170657 -0.0055077 
-9.86872e-05 -0.000128489 -0.000128185 2.32008e-05 7.19144e-05 0.000207403 -4.61239e-06 -0.000165599 -4.06378e-05 -7.45147e-05 2.00984e-05 0.000100029 2.90533e-05 -0.000149258 3.82435e-05 -0.000149777 
0.737201 0.847654 -0.3225 -0.485234 -0.460122 0.116912 -0.147717 -0.27113 0.194572 -0.423707 0.165762 -0.2588 0.0734929 -0.129896 0.65509 -0.133339 
0.233666 0.0338725 -0.0753367 0.0439769 -0.0923075 -0.103416 -0.13975 0.00921039 -0.0834099 -0.0086976 -0.0754706 -0.070589 0.0158125 -0.107296 -0.0143469 -0.0748361 
-0.0620582 0.506 -0.261062 0.345306 0.489258 -0.376463 0.355927 0.474693 -0.521318 0.665058 -0.521401 -0.344319 0.441846 0.464933 -0.319975 -0.265811 
-0.235125 -0.1563 0.154774 0.0261057 0.0374636 0.280499 -0.0236807 0.470557 -0.153857 0.0746749 -0.144549 0.143615 -0.169463 0.0288306 -0.241437 -0.232333 
-0.169066 0.338706 0.400777 -0.024256 0.378285 0.248102 0.228632 0.166111 -0.108764 0.424894 -0.074834 0.180776 0.46283 0.130197 0.276867 0.352163 
-0.0223098 -0.0422605 0.158863 0.048384 0.123344 -0.00138802 0.0113118 -0.0251942 0.0334108 0.0511706 0.0246111 0.0714009 0.116422 0.0508046 0.142602 0.122425 
0.26288 0.016848 -0.0512156 0.177355 -0.0632488 -0.205782 -0.0560893 -0.0105888 0.0178786 -0.00153674 0.0762986 0.0690272 -0.0672859 -0.10019 0.00163005 0.0965988 
0.00436177 0.0229785 -0.027701 0.0305051 0.0102152 0.00345388 0.0173885 0.041717 0.0484388 0.00391779 0.0239152 0.0481065 -0.0366919 -0.00268661 -0.0475188 -0.000967622 
-0.00899837 -0.0425292 0.0485552 0.0530391 0.0815432 0.00112748 0.0171636 -0.0181534 0.00110985 0.0265936 -0.00632773 0.00312071 0.0776301 0.00898404 0.0344455 0.0287853 
0.0678938 -0.243991 0.0820317 0.345218 0.190565 -0.117673 0.214722 -0.0997244 0.0447298 -0.0229022 0.0859359 -0.044724 0.115256 0.153887 0.0726748 0.0351794 
-0.043664 -0.0375946 -0.0174864 0.0974841 0.0739123 -0.0102982 0.0792691 0.12647 -0.0556017 0.0494501 -0.0672698 -0.0477114 0.0267449 0.0662176 -0.0807414 -0.0667967 
0.0808932 -0.0394831 -0.0193669 0.0625419 -0.0195952 -0.0436105 -0.0397844 -0.0365543 0.0510152 -0.0125039 0.0781915 0.0417247 -0.0161428 -0.046561 -0.0216762 0.0616573 
0.187891 -0.0947601 -0.0242709 0.164683 -0.0252851 -0.0544108 -0.0494137 -0.0489382 0.15218 -0.0227201 0.234538 0.180169 -0.0181719 -0.0282352 -0.0709359 0.17449 
0.0436072 -0.116024 0.0673447 0.0695639 0.0542986 -0.0371356 0.0914054 -0.0725292 0.0372672 -0.0879593 0.0522981 0.00861142 0.0532848 0.0453196 0.090096 0.0364624 
0.48958 -0.271813 -0.116606 0.413727 -0.146135 -0.177541 -0.0918342 -0.203301 0.473036 -0.112632 0.549398 0.494895 -0.173645 -0.120562 -0.154477 0.495735 
0.249016 -0.243392 0.498276 0.47 0.436685 -0.137627 0.542516 -0.233934 0.273434 -0.133519 0.382747 0.0821902 0.413485 0.432382 0.427788 0.270606 
-0.254866 0.444429 -0.208223 -0.325967 -0.381111 0.456921 0.377535 0.298522 0.556219 -0.297523 0.548662 -0.215029 -0.445109 0.375992 0.297981 -0.170384 
-0.0172488 -0.115602 0.513638 -0.231621 -0.151514 0.547225 -0.134314 0.546869 -0.0285611 -0.243446 -0.0439471 0.332818 -0.173466 -0.117577 -0.0356348 -0.211015 
0.0297091 -0.00808216 0.0286734 0.0238212 -0.0284292 0.00675878 -0.0403949 0.0637553 0.0432896 -0.0228509 0.0381318 0.0805302 -0.0371783 -0.0128813 -0.0734978 0.000713503 
-0.0457118 -0.0363531 0.0996076 0.0765084 -0.00961668 0.0990567 -0.087095 0.0864185 0.0951291 0.151855 0.123945 0.246558 -0.0860867 -0.0386951 -0.160624 0.185328 
0.0591095 -0.0834678 0.0125505 0.480554 0.310411 -0.0868845 0.300466 0.310255 0.0521697 0.410727 0.151681 0.0697425 0.203912 0.352381 -0.16716 0.145967 
-0.232217 -0.112931 0.389946 -0.179728 -0.137883 0.473102 -0.0296753 0.472376 -0.0879802 -0.0544217 -0.102904 0.242807 -0.188368 -0.00946883 -0.0585528 -0.16965 
0.0724786 0.0224444 0.345081 0.196289 0.239073 0.100291 0.209316 0.0877245 -0.133016 0.0523574 -0.0798265 0.194753 0.352893 0.156208 0.158834 0.0324333 
-0.0550435 -0.0639385 0.180443 -0.0246124 -0.0595561 0.129913 0.00155737 0.2396 -0.0358556 -0.0833254 -0.0266707 0.128604 -0.13037 -0.00928267 -0.107784 -0.072928 
0.521432 -0.367482 -0.118079 0.455865 -0.108474 -0.241854 -0.325789 -0.222093 0.494878 -0.0835144 0.537394 0.501761 -0.175688 -0.272329 -0.305025 0.486089 
0.399073 -0.282899 0.135657 0.306998 0.0069901 -0.106081 0.106591 -0.326811 0.249832 -0.407324 0.42831 0.124781 0.0635031 0.0392444 0.246504 0.14229 
-0.0418453 0.163303 0.00988878 -0.134946 -0.106197 0.191242 0.0209953 0.162076 0.00757355 -0.0790393 -0.00588275 -0.0830082 -0.0656677 0.055315 0.102497 -0.116971 
0.304242 0.180818 -0.13481 0.158157 -0.200687 0.185903 0.338172 -0.142924 0.815077 -0.529499 0.785719 0.000356134 -0.266681 0.418822 0.386278 0.17821 
0.153999 0.751704 -0.164737 -0.264316 0.034241 0.229088 0.144875 0.460515 -0.16678 0.279864 -0.209043 -0.257044 0.169385 0.136565 0.16229 -0.231591 
0.129742 0.119044 -0.0446232 -0.0397661 -0.0246748 -0.0604779 -0.120264 -0.00243061 -0.121864 0.0407029 -0.126863 -0.0136812 0.0438579 -0.0829518 0.0105375 -0.0821193 
0.0129931 -0.299401 0.298793 0.227498 0.0339976 0.0490804 0.150513 -0.0852075 0.0968331 -0.278268 0.228688 0.146733 -0.0150481 0.0920444 0.192716 0.0403369 
0.0217404 0.332101 0.208051 -0.341554 -0.177231 0.470381 -0.061833 0.209004 -0.0362006 -0.0357379 -0.0468698 -0.0133444 0.0232369 -0.0208893 0.248173 -0.184284 
-0.588234 -0.285807 0.881957 -0.241359 -0.0206696 0.829666 0.00981458 0.959046 -0.313726 -0.018407 -0.423409 0.692564 -0.204494 0.000682063 -0.0821183 -0.187752 
0.0939458 -0.195575 0.115664 0.195906 -0.0931678 0.0597837 -0.12546 0.0723049 0.143398 -0.0401765 0.206693 0.177301 -0.191101 -0.0762985 -0.132265 0.0724666 
-0.102751 0.329383 -0.143391 -0.110674 -0.117386 0.306265 0.318747 0.155759 0.317368 -0.113054 0.283337 -0.197485 -0.111992 0.304567 0.224699 -0.097198 
-0.101434 0.233104 -0.0707028 0.169977 0.342335 -0.128897 0.262131 0.215992 -0.0308946 0.212156 -0.0317511 -0.170024 0.180729 0.2889 0.0480534 -0.111529 
0.164287 0.38208 0.0218668 -0.0673583 0.0649928 0.128588 -0.0368916 0.0947508 0.181538 0.173097 0.223506 0.170305 0.129084 0.0116122 0.154954 0.242801 
-0.0158412 -0.0337208 0.214294 0.513459 0.675728 -0.219518 0.508668 0.171551 -0.0281799 0.389007 -0.0133047 -0.0390115 0.427385 0.440015 0.111577 0.0390265 
0.814342 1.01681 -0.325573 -0.781409 -0.275796 0.259093 -0.0960376 -0.275336 -0.23953 0.0590656 -0.277564 -0.295073 0.542701 -0.157841 0.917315 -0.0454035 
0.113632 0.225256 -0.110764 -0.0662031 -0.090445 0.00754427 0.0591902 0.00983704 0.054182 -0.0924297 0.0117696 -0.161383 0.0226763 0.0693164 0.183103 -0.146685 
0.0512506 0.0118715 -0.0125583 0.0466613 -0.0335179 -0.0180555 -0.0541432 -0.0495202 0.0580827 -0.0327319 0.0754565 0.0289832 -0.0142422 -0.0480593 -0.0426731 0.0236534 
-0.163188 0.275074 -0.0891825 -0.245454 -0.113536 0.345918 0.307329 0.228343 0.289085 -0.143693 0.272198 -0.243724 -0.141794 0.298814 0.273542 -0.202958 
0.212525 -0.144447 -0.168393 0.350401 -0.162691 -0.200646 -0.280864 -0.045781 0.318058 -0.00815415 0.371343 0.253655 -0.171968 -0.172523 -0.379967 0.293468 
0.108499 0.112381 -0.206237 0.0655376 -0.206813 0.0963336 0.0800077 0.158615 0.360271 -0.110339 0.405203 -0.0535471 -0.277292 0.078396 0.000871672 -0.110756 
0.117211 0.0567018 -0.0958428 -0.00689484 -0.0724118 -0.0609591 -0.0571573 -0.0851258 0.0244047 -0.0688365 0.0686051 -0.018692 0.034054 -0.0707495 0.0344107 -0.00174336 
0.0270766 -0.0603811 0.0109926 0.100739 0.0790374 -0.0780857 0.0667828 -0.0715665 -0.00300865 -0.0598899 0.00685127 -0.0706999 0.0845027 0.0569421 0.110609 -0.0301367 
0.075051 -0.134911 0.100644 0.0910183 -0.125016 0.0802856 -0.169497 0.0973648 0.0222664 -0.0436262 0.0646764 0.130525 -0.106719 -0.11963 -0.115839 0.0327601 
0.161038 -0.336125 0.495518 0.467904 0.441947 -0.0983327 0.476559 -0.166285 0.282355 -0.197026 0.263199 0.0847032 0.426986 0.443702 0.572274 0.241052 
0.159872 -0.0984338 -0.0885568 0.214204 -0.0663219 -0.0761782 -0.0730944 -0.0370784 0.162263 0.0359566 0.163708 0.122575 -0.132474 -0.0570542 -0.106003 0.0768348 
0.030941 -0.0612696 -0.00417001 0.0527534 -0.00616343 -0.0250735 -0.0301185 0.0204407 0.060179 0.00978391 0.0541803 0.0623628 -0.0852242 -0.010248 -0.0428081 0.0247606 
-0.0556749 0.0679738 0.0620895 -0.0897522 0.035384 0.0592879 -0.0235327 -0.0223463 -0.00123996 0.0997618 -0.0461005 0.0856579 0.0715828 -0.0299792 0.00924425 0.122014 
0.179954 0.0866247 0.0080998 0.00237741 0.0372483 -0.0754722 0.0856721 -0.166541 -0.0354759 -0.0841146 -0.00636935 -0.108674 0.130385 0.0593773 0.170383 -0.0615866 
0.000717109 0.0289101 0.00182649 0.00188382 0.000989002 -0.0018246 -0.000173991 -0.0265602 0.000101153 -0.00633377 -0.000945126 -0.0180183 0.0168076 -0.00164986 0.00753212 -0.0114479 
0.210951 -0.0714644 -0.074296 0.0925747 -0.0352238 -0.132732 -0.0445682 -0.203618 0.0571213 -0.132606 0.115822 0.0157709 0.073241 -0.0244065 0.0998436 0.0612118 
0.0462353 0.0972218 -0.0129921 -0.0640646 -0.0251672 -0.0105893 -0.0685872 -0.051168 -0.0645151 0.0127443 -0.0815034 0.00744868 0.112692 -0.0943304 0.125812 0.0441994 
0.0547318 -0.169484 0.0801802 0.119792 0.0793474 -0.0257341 0.115582 -0.0767816 0.0506467 -0.139221 0.108712 0.015856 0.0770105 0.0646047 0.164744 0.0595466 
0.00219208 -0.0735134 0.0675893 0.0578527 0.03935 0.0103462 0.0500908 -0.0347379 0.0172376 -0.00477201 0.0234022 0.0288736 0.0191669 0.0287761 0.0540781 0.0184324 
0.799405 0.74991 -0.359071 -0.354116 -0.495762 -0.17267 -0.194986 -0.184988 -0.170285 -0.455995 -0.272994 -0.427741 0.283399 -0.180165 0.578426 -0.384747 
-0.0649528 -0.0774505 0.103161 -0.0881748 -0.0129064 0.0801764 -0.063521 0.149558 -0.0976836 0.0398643 -0.135226 0.079387 -0.0963525 -0.0699072 -0.0506421 -0.0656963 
0.200656 -0.222665 -0.0668782 0.190305 -0.0990448 -0.082565 -0.297105 -0.0884825 0.230023 0.00226991 0.246237 0.26352 -0.0874339 -0.170418 -0.28169 0.202475 
0.190423 -0.254256 0.0290818 0.361756 0.0428096 -0.021112 -0.0619619 0.0451978 0.0752893 0.0150487 0.161513 0.238166 -0.074728 -0.0559065 -0.205383 0.0644066 
0.0235351 0.0446204 -0.0666891 0.287811 0.306173 -0.311823 0.311697 0.0858184 -0.104137 0.128012 -0.114364 -0.227884 0.255692 0.255526 0.0322712 -0.175711 
0.16096 -0.158097 0.189177 0.114964 -0.0344632 0.146968 0.0217568 0.192994 0.00710482 -0.123524 0.0142247 0.139658 -0.0201559 0.00581693 -0.144933 -0.0268721 
0.105913 -0.0715959 -0.00334878 0.108548 -0.0693137 0.0842469 -0.163899 0.00850938 0.248158 -0.0288793 0.25989 0.141804 -0.087719 -0.0665552 -0.000406797 0.202943 
0.190623 0.543666 -0.331242 -0.0384473 -0.314443 0.181512 0.0781553 0.272304 0.419403 -0.199771 0.518278 -0.210006 -0.318664 0.238292 0.0195554 -0.27087 
0.574758 0.580424 -0.205591 0.132272 0.0848056 -0.0448182 0.308725 -0.0903646 0.0240575 -0.0858865 0.0972724 -0.349468 0.376904 0.236941 0.471952 -0.117926 
-0.0965691 0.0975555 -0.101413 -0.0762456 -0.0575967 0.071374 0.0799535 0.0938703 0.0557919 -0.0632998 0.0559813 -0.109616 -0.0830008 0.0930469 0.0179234 -0.084103 
0.489616 -0.0253179 -0.403807 0.0696815 -0.581336 -0.115178 -0.291779 -0.225262 0.799567 -0.546212 0.760971 0.0348365 -0.470593 -0.132245 -0.140392 0.145727 
-0.118803 0.190247 -0.0567638 -0.0518618 0.0307146 0.103686 0.187261 0.150316 0.075492 0.0421798 0.0494065 -0.157872 -0.0342221 0.167611 0.0356635 -0.0793026 
0.565769 0.155563 0.0936484 0.167824 0.0367348 0.0106497 -0.200447 -0.080828 0.140722 0.0987025 0.151414 0.379257 0.133678 -0.292512 -0.0174996 0.362362 
0.116952 0.387664 -0.225705 -0.0343771 -0.0810368 0.127196 0.382754 0.087593 0.389135 -0.0941234 0.445713 -0.153436 -0.0581275 0.300574 0.287653 -0.0217364 
0.70849 0.555931 0.103819 0.529828 0.44514 -0.350905 -0.172989 0.040047 -0.127019 0.662708 -0.177999 0.285365 0.644127 -0.117243 -0.0666622 0.394404 
-0.0630469 0.210998 -0.115689 0.0768476 0.0691082 0.0687265 0.357068 0.138075 0.253734 -0.0257823 0.266731 -0.141279 -0.0115361 0.311013 0.16319 0.00252539 
-0.00116465 0.05992 0.146315 -0.16112 0.0359398 0.0880392 -0.116384 -0.0256105 -0.0340047 0.114262 -0.0711753 0.155611 0.0546145 -0.113354 -0.0141334 0.202553 
0.0606099 0.501769 -0.551522 0.220744 -0.380245 0.0899613 0.312988 0.254063 0.796206 -0.202416 0.853972 -0.136255 -0.645035 0.46875 -0.0112965 0.0497356 
0.289212 -0.0773898 -0.00904724 0.149533 -0.0667504 0.00479996 -0.213789 0.00576536 0.541681 0.114955 0.534869 0.523594 -0.066183 -0.188695 -0.201849 0.604169 
0.0136158 -0.00592715 -0.0058637 0.0767097 0.0250275 -0.0534855 0.0355011 -0.00286833 -0.00165449 -0.0177253 0.0137646 -0.040489 0.0187663 0.0311214 0.0526825 -0.0174659 
0.00806785 0.024164 -0.0116302 -0.0593642 -0.0227566 0.00292408 -0.0298744 -0.00369699 0.0643262 -0.0510311 0.0556251 -0.0202517 -0.00703099 -0.00579298 -0.00665323 -0.0163434 
-0.0140706 -0.0329822 0.124402 -0.00876369 0.059221 0.0163934 0.0281215 -0.101392 0.0384778 0.00535482 0.0130923 0.0750428 0.10599 0.0054395 0.114722 0.132191 
1.11988 1.0111 -0.658662 -0.66462 -0.49855 -0.548049 -0.377945 -0.850617 -0.574913 -0.494371 -0.597182 -0.839566 1.06337 -0.383677 1.04071 -0.649274 
0.0374877 0.00833168 0.0126101 -0.0243592 -0.0652827 0.0392701 0.0578687 -0.0175786 0.020416 -0.122495 0.0682723 -0.028159 -0.0248312 0.0129382 0.108674 -0.0289315 
0.240661 0.224183 -0.0740751 -0.013808 0.0577751 -0.130994 -0.0441011 -0.0817352 -0.0882159 0.00867685 -0.10491 -0.0914038 0.24587 -0.0391774 0.129611 -0.0392756 
0.226568 -0.134267 -0.164454 0.257638 -0.167186 -0.192875 -0.240592 -0.112552 0.135113 -0.0673583 0.189975 0.132818 -0.167645 -0.141268 -0.228248 0.140602 
-0.0463662 0.0496819 0.043606 -0.0808221 0.0070886 0.0324856 -0.05302 -0.00331458 -0.0373872 0.0667883 -0.0259497 0.0407377 0.0511659 -0.0322305 0.00223448 0.073308 
-6.44308e-05 0.000152844 0.000257094 0.000114186 -0.000183712 8.03686e-06 -0.000102966 -2.81029e-05 -0.000272926 -3.07577e-05 -2.27885e-05 0.00016513 3.8319e-05 -6.63556e-06 -0.000211536 -5.87829e-05 
0.220809 0.190978 -0.301436 0.252829 -0.0264187 -0.21347 -0.00154994 0.0736127 0.0741745 0.0960199 0.190669 -0.075628 -0.0134924 -0.00220933 -0.221005 -0.128139 
0.157346 0.0574724 -0.0328079 0.123812 0.0728444 -0.142029 0.108664 -0.150386 -0.044316 -0.0608196 -0.00670207 -0.134778 0.203116 0.0804031 0.171518 -0.0805861 
0.137036 0.014268 0.0445562 0.0965895 4.76915e-05 -0.0352516 0.074109 -0.086405 0.0236755 -0.0720692 0.0374267 -0.036185 0.112783 0.00765961 0.166249 0.0287725 
0.0917061 0.637869 0.210281 -0.359502 -0.0458723 0.366104 -0.0969951 0.0346771 -0.0646233 0.139912 -0.198602 0.141283 0.359314 -0.12793 0.430844 0.0926528 
0.104478 -0.155408 -0.0626359 0.18924 -0.0494856 -0.0563933 -0.0495459 0.02811 0.0677424 0.0204166 0.145327 0.164891 -0.147979 -0.0429388 -0.208506 0.055508 
-0.286603 -0.0410442 0.163733 -0.265995 -0.247592 0.418417 0.0712467 0.509219 -0.0226507 -0.117288 0.000676622 -0.0369557 -0.349837 0.0923365 -0.0599455 -0.330978 
0.0807889 0.167067 -0.00617551 -0.0831808 0.0097071 0.00990879 -0.087541 0.00979379 -0.0387358 0.0498681 -0.0639741 0.0152713 0.107482 -0.0413897 0.0544105 0.0340038 
-0.122162 0.151942 -0.057857 -0.0833517 -0.0803853 0.311156 0.205938 0.302525 0.306036 -0.0412685 0.322203 0.00369889 -0.246868 0.173591 0.0660302 0.0392466 
-0.0802412 0.0597334 0.119556 -0.150915 -0.0969731 0.300861 0.0515582 0.195949 -0.0171852 -0.0373011 0.0394208 0.054535 -0.105427 0.040321 -0.00668183 -0.0970776 
-0.191977 0.269125 -0.0960097 0.0305419 -0.0180942 0.219994 0.344327 0.24999 0.31585 -0.048073 0.388361 0.0323977 -0.243403 0.344063 0.0568366 0.089987 
0.159047 -0.323968 0.216405 0.375645 0.196245 -0.22645 0.241948 -0.327381 0.164971 -0.12087 0.240508 0.0670149 0.172436 0.102632 0.250666 0.224206 
-0.0398205 0.0319519 0.243441 -0.0202151 0.139696 0.111098 0.159091 -0.150358 0.190485 0.030496 0.221405 0.195491 0.190151 0.0442481 0.220493 0.376777 
0.117186 0.119692 -0.0183393 -0.00986067 -0.0235561 -0.013701 -0.0104122 -0.0464392 -0.0634331 -0.00568558 -0.0683808 -0.0235607 0.06597 -0.0440014 0.000132584 -0.0152746 
0.104304 0.140314 -0.0280141 -0.0392859 0.00712271 -0.0109294 -0.0571668 -0.0320091 -0.0948288 0.00485362 -0.143123 -0.0924267 0.0925463 -0.0352504 0.0826986 -0.082344 
0.305853 -0.23813 -0.192947 0.250717 -0.217935 -0.197437 -0.253577 -0.273609 0.418114 -0.137164 0.572417 0.368449 -0.200017 -0.233463 -0.237192 0.321736 
-0.118546 0.11819 -0.112841 0.196102 0.233385 -0.159881 0.165678 0.161773 -0.0828786 0.224281 -0.0759854 -0.097163 0.123801 0.184679 -0.116234 -0.0680526 
-0.0181792 0.0372902 -0.18501 -0.06772 -0.335208 0.0850018 0.0555122 0.0392407 0.29575 -0.25132 0.349886 -0.05997 -0.361461 0.0619387 0.0246272 0.0134784 
0.307698 0.241131 -0.0613014 -0.0742661 -0.10838 -0.0615579 -0.0697054 -0.0843064 0.000393128 -0.0789923 0.00273308 -0.0194729 0.128489 -0.0695242 0.188817 -0.035134 
0.192312 0.146006 -0.0813895 -0.0470531 -0.0782309 -0.0494341 -0.0114553 -0.062772 0.00429334 -0.0548137 -0.00506411 -0.040789 0.115437 -0.00189634 0.142832 -0.057869 
-0.0330787 0.0541971 -0.0253151 0.0147592 0.0853315 -0.0397914 0.0112876 0.0334803 -0.052582 0.106447 -0.0670663 -0.0308683 0.0511272 0.0201955 -0.0823888 -0.0250245 
-0.00246862 -0.0488421 0.180503 -0.011823 -0.0202303 0.170976 -0.112213 -0.0375472 0.0893726 0.00399005 0.074466 0.216667 -0.0156146 -0.131891 -0.0337006 0.240674 
0.398432 0.393597 -0.0947276 -0.0620337 -0.0900589 -0.0872431 -0.0919724 -0.166835 -0.023517 -0.075773 -0.0453064 -0.0938001 0.224173 -0.0809936 0.227611 -0.0453286 
-0.496484 0.293596 0.810687 -0.71291 0.180473 0.7497 -0.604501 0.555933 -0.38078 0.681097 -0.547594 0.830266 0.367101 -0.558447 -0.136032 0.625613 
0.0885708 0.0993047 -0.105615 0.00756925 -0.0805622 -0.0189293 -0.0534612 0.0344146 -0.0142447 -0.0133316 -0.0156434 0.00118669 0.00609901 -0.0626212 0.00501229 -0.0805266 
-0.0423796 -0.0765692 0.0881792 -0.0764603 -0.108475 0.0814912 -0.0668677 0.11158 -0.0758451 -0.0652925 -0.0610019 0.0569423 -0.0973399 -0.0650666 -0.0473747 -0.126483 
-0.00102393 0.005581 -0.00182201 0.00437966 -0.00899742 0.00643005 0.00314581 -0.00171423 0.0303015 -0.0073962 0.00481684 -0.00879187 -0.0220936 0.00893785 0.00696374 0.0016421 
-0.213817 0.367753 -0.0356289 -0.261425 -0.203299 0.374664 0.377444 0.323673 0.360364 -0.161636 0.3327 -0.140632 -0.173068 0.324509 0.372027 -0.110433 
0.0679206 -0.043073 0.122426 0.365273 0.337907 -0.0635716 -0.0307718 -0.0259919 0.116535 0.279276 0.193521 0.38162 0.280956 0.0236627 -0.00564221 0.447854 
0.0796913 -0.215693 0.285752 0.205654 0.118848 0.0813713 0.216415 0.018423 0.036765 -0.113641 0.045958 0.115323 0.183344 0.171789 0.265932 0.0647278 
0.0386778 0.00760771 0.0119726 0.0464007 -0.018365 -0.0347266 -0.0107874 0.0616328 -0.0303312 0.0448318 -0.0356461 0.0304489 -0.00749833 0.0105923 -0.0766066 -0.00381108 
0.352785 -0.309507 -0.285466 0.490475 -0.226809 -0.280929 -0.100385 -0.299868 0.709184 -0.219208 0.683259 0.292166 -0.335522 -0.0550187 -0.211273 0.393813 
-0.0665305 0.087496 -0.0301783 -0.0352688 -0.0591397 0.177967 0.144526 0.110327 0.143322 -0.0858884 0.177949 -0.102163 -0.18699 0.144398 0.123856 -0.065341 
0.000363718 -0.0267906 0.0570194 0.0841617 0.0901723 -0.0486743 0.0578801 -0.0194601 -0.0358252 0.0337006 -0.0388243 0.0257346 0.103995 0.0461152 0.0360562 0.0319179 
0.292144 0.166926 -0.180462 0.256143 0.0086902 -0.219623 0.0685203 0.321296 -0.118985 0.091017 -0.0618077 -0.254873 -0.012759 0.154415 -0.0361366 -0.441078 
-0.0161416 -0.0594637 0.0485599 0.00947462 0.00108367 0.0413561 0.01087 -0.00471594 0.011718 -0.0234663 -0.0151345 0.0339247 -0.0164878 0.00912392 0.00364844 0.00580854 
0.158154 0.299375 -0.0736045 -0.0839579 -0.0535517 -0.00228474 0.0491377 -0.0278043 0.0378385 -0.0712179 0.0594827 -0.12894 0.0772285 0.0688344 0.18365 -0.0771048 
0.0111457 -0.118355 0.255168 -0.00759509 0.0237241 0.165396 0.00638513 0.119021 0.00616584 -0.0436962 -0.044561 0.149195 0.0314654 -0.0451545 0.00685609 0.0622842 
-0.0419973 0.0161629 0.107066 0.0264559 0.0631236 0.120304 0.20969 0.0166592 0.0814684 -0.0709501 0.108158 -0.0656258 0.0584209 0.188874 0.163914 0.00289445 
0.00130438 0.0123187 -0.0304448 0.0194007 0.0302432 -0.0363385 -0.0179047 0.0328337 0.00992906 -0.00954059 0.000189804 -0.00826943 -0.000233078 0.00644198 -0.022931 -0.0104669 
-0.0112736 0.00534377 -0.0018072 0.00435717 -0.00926593 -0.00477959 -4.01712e-05 -0.00110125 -0.000302906 -0.00212843 0.000425905 -0.0123645 0.0113985 -1.09532e-05 -0.0034729 -0.0129602 
0.086054 0.0607255 0.145197 0.120552 0.164485 -0.07972 0.0989272 0.0184828 -0.168911 0.0741909 -0.143424 0.0651757 0.176721 0.0930334 0.0752082 -0.042423 
-0.243973 0.337054 0.942221 -0.705211 0.245477 0.896605 -0.42937 0.805179 -0.512268 0.539219 -0.646235 0.847492 0.460384 -0.480625 0.087972 0.484697 
0.144212 -0.262439 0.379359 0.396061 0.351603 -0.106729 0.469306 -0.135648 0.135007 -0.149636 0.279394 0.00402316 0.325905 0.360366 0.41247 0.16372 
-0.0472189 -0.125433 0.118364 -0.0383092 -0.0810775 0.129425 -0.0177166 0.0911975 -0.0998765 -0.0604598 -0.0364374 0.00880055 -0.0926382 -0.00581368 -0.0228438 -0.137197 
0.142999 0.0674041 0.0832119 -0.0404134 -0.117054 0.0379216 -0.0723673 0.0575961 -0.0566077 -0.110946 -0.0661626 0.0757385 0.0242947 -0.0526292 0.0290682 -0.0711916 
0.285236 0.0934286 0.340266 -0.0757587 0.0961673 0.0558339 0.0657771 -0.0599266 -0.124344 -0.0925581 -0.0985861 0.0763493 0.302168 0.0192298 0.310647 0.0154569 
0.233892 0.0166041 0.286786 -0.177924 -0.155017 0.296817 -0.281621 0.266029 0.0130786 0.0200259 -0.0516707 0.439258 -0.0993323 -0.284731 -0.180442 0.0981961 
-0.0333321 -0.0256762 0.0541225 -0.027738 -0.0175148 0.0369097 -0.0451885 0.0790246 -0.0593775 0.00507306 -0.0461756 0.00524095 -0.0698743 -0.0372922 -0.0664794 -0.0599435 
0.215982 -0.0464822 0.0896546 0.467093 0.353575 -0.178263 0.325445 -0.123874 0.111091 0.059541 0.202327 -0.0156155 0.290222 0.254789 0.227003 0.145925 
-0.126602 0.0688943 0.0306306 -0.00497464 0.0619723 0.0316367 0.0232574 0.262682 -0.0883793 0.175582 -0.0923714 0.0332578 -0.0538716 0.0324583 -0.144152 -0.0641445 
-0.169113 0.14091 0.428182 -0.232578 0.0957791 0.32693 -0.33536 0.215829 -0.151466 0.357227 -0.224974 0.592843 0.251464 -0.358475 -0.178637 0.458035 
-0.138939 0.117339 -0.0464144 -0.0890496 -0.0827271 0.147578 0.0303479 0.188526 0.00950291 0.00735108 -0.0383443 -0.124556 -0.097074 0.0881399 -0.05953 -0.191455 
0.0263694 0.138719 0.073072 -0.12427 -0.0179359 0.115438 -0.028453 -0.0093219 -0.0248966 0.036126 -0.0143006 0.0177774 0.0897733 -0.0219774 0.0801991 0.101279 
0.0191729 0.0674789 0.0473725 -0.0800027 0.00647125 0.0310948 -0.0683375 -0.0124465 -0.0166615 0.0361692 -0.0264229 0.049721 0.0433562 -0.0415242 0.0439292 0.0388088 
-0.00549613 -0.0573683 0.0948845 0.0658658 0.0775489 0.0211266 0.106442 0.0242298 -0.062445 0.0136734 -0.044075 -0.00960818 0.0518649 0.0543234 0.0635627 -0.0582462 
0.0468789 -0.0243337 -0.00276654 0.0482757 0.00281491 -0.00184944 -0.00388142 -0.0139156 0.052045 -0.00531656 0.0434274 0.0462984 0.000761642 -0.0273276 -0.00839997 0.0266008 
-0.00692638 -0.12226 0.255187 0.131619 0.067115 0.0533855 0.0795108 -0.00642968 -0.0270288 -0.0578608 0.0182725 0.0779964 0.0501495 0.0308307 0.0631294 0.0214652 
0.444761 0.650756 -0.139749 0.0490608 0.171379 -0.249046 -0.00531427 -0.161215 -0.117817 0.31042 -0.194708 -0.137468 0.460124 -0.0108446 0.284246 0.0965106 
-0.0148969 0.00111834 0.0683284 -0.0204449 0.00356783 0.0733274 0.0318568 0.082358 0.00495364 -0.0267906 -0.0514189 0.0496559 -0.029397 0.0621783 -0.0389332 -0.0283256 
-0.238587 0.447021 -0.318358 0.540148 0.466079 -0.0639046 0.682714 0.718586 -0.273176 0.436179 -0.235962 -0.595575 -0.0531107 0.698415 -0.12552 -0.663637 
0.000876005 -0.0119401 0.0280129 0.00878324 -0.0310143 0.0110655 -0.0527111 0.032453 0.0365132 -0.053958 0.0224949 -0.0114344 -0.0303507 -0.0240022 0.016306 -0.0174075 
0.118341 -0.075458 -0.00468903 0.132518 -0.0817601 -0.0552277 -0.0820548 -0.127096 0.212199 -0.0961472 0.207035 0.18054 -0.0537512 -0.0562622 -0.12046 0.169482 
0.180168 0.0921615 0.24451 -0.100798 -0.013151 0.187114 -0.292407 -0.0102549 0.079395 0.192222 0.166912 0.546236 0.234523 -0.301139 0.0108227 0.525244 
0.0321118 0.0544291 -0.0141818 -0.0327912 -0.0012023 -0.0326808 -0.046009 -0.0141769 -0.00336697 -0.0121536 -0.000735194 0.0220254 0.0592636 -0.0365573 0.0426612 0.0358281 
-0.0557981 0.004279 0.0825415 -0.126203 -0.0919548 0.181172 -0.0815562 0.0289879 0.00840387 -0.0311927 -0.00705555 0.0401171 -0.0157382 -0.0411253 0.000595237 0.0536244 
-0.139589 0.431884 -0.116097 0.361699 0.584696 -0.0733535 0.541131 0.67472 -0.191758 0.681066 -0.236931 -0.0849442 0.273661 0.583267 -0.115372 -0.132903 
-0.363844 0.335924 0.347602 -0.30089 0.182528 0.528381 0.0372549 0.106524 0.124703 0.295825 0.120905 0.40233 0.178846 -0.0358232 0.181546 0.476388 
0.551386 0.23068 -0.0212139 0.162097 0.000524379 -0.211242 0.0073715 -0.279618 0.137032 -0.104091 0.207634 0.0539967 0.247167 -0.0430992 0.228421 0.123052 
-0.0216217 0.147698 -0.228192 0.256706 0.237868 -0.235997 0.196114 0.117948 -0.0548718 0.301011 0.00148995 -0.189596 0.0744708 0.163063 -0.143313 -0.200081 
-0.0421511 0.059368 -0.0367283 0.0742238 0.0788528 -0.0447122 0.0608341 0.162878 -0.103725 0.122067 -0.113707 -0.0540452 -0.00508866 0.0632636 -0.083367 -0.0880934 
0.0928043 -0.0778543 -0.052402 0.0773115 0.00662393 -0.0629736 -0.0754309 -0.0530543 0.0837368 0.00627884 0.103519 0.16282 -0.0579563 -0.0912732 -0.118167 0.088472 
0.349866 -0.321125 -0.223467 0.397571 -0.119851 -0.284677 -0.260893 -0.261766 0.460579 -0.0716262 0.6102 0.340192 -0.205309 -0.217129 -0.261571 0.337617 
0.28795 -0.199206 -0.0422585 0.169091 -0.124331 -0.119138 -0.192882 -0.161759 0.23113 -0.0862893 0.240495 0.192606 -0.0488406 -0.203826 -0.109282 0.19231 
0.051128 0.128668 -0.0875353 0.0548585 0.0587625 -0.115765 0.05825 0.00793861 -0.0506882 0.0645209 -0.0774886 -0.12587 0.130649 0.0824055 -0.0278266 -0.0860161 
0.0855244 0.113496 -0.0830434 0.0658871 0.0504609 -0.0848469 0.0467315 -0.00149022 -0.0481329 0.0212028 -0.0741233 -0.109503 0.124793 0.0530218 0.0520098 -0.0659118 
-0.0765905 0.0496729 0.0592943 0.00487804 0.0820415 0.026329 0.0435491 0.249788 -0.0990502 0.0890519 -0.125775 0.00684643 -0.00614756 0.0353782 -0.0951118 -0.0593266 
0.0597094 0.0489284 -0.108709 0.0274886 -0.0161396 0.00888614 0.0266465 0.0730177 -0.00693237 0.0280885 0.0312684 -0.059767 -0.0821264 0.0175719 -0.0672549 -0.0659909 
0.0779451 0.00225948 -0.0429404 0.0364055 -0.0110167 -0.0396019 -0.0269081 -0.0224261 0.026679 -0.0224497 0.0133456 0.0331663 -0.000175994 -0.0209499 -0.0307745 0.011435 
-0.0055942 -0.184995 0.247983 -0.178113 -0.179594 0.291221 -0.061541 0.296548 -0.131676 -0.209448 -0.163057 0.0877234 -0.117166 -0.0607065 -0.0138586 -0.312431 
0.532266 0.437929 -0.37712 0.0875378 -0.189167 -0.27583 -0.088959 -0.322967 0.0202625 -0.167881 0.0554159 -0.157104 0.0351453 -0.107601 0.222511 -0.0174083 
-0.00873246 -0.110101 0.107665 -0.00879885 -0.0841905 0.168528 0.0380004 0.251042 0.0389973 -0.109466 0.0748099 0.0938907 -0.186883 0.0373567 -0.0237461 -0.134487 
0.220145 0.103684 -0.105702 0.020065 -0.115807 -0.0877675 -0.0666931 -0.0984959 0.0294695 -0.0860879 0.0619546 -0.0053575 -8.04197e-07 -0.0692056 -0.00784733 -0.00926157 
-0.107674 0.112165 -0.0176471 0.387913 0.390447 -0.158532 0.376625 0.379389 0.0908786 0.248774 0.0928797 -0.022419 0.116889 0.373153 -0.0819521 0.0778796 
-0.0570416 0.103978 0.0255421 -0.0691665 0.0279636 0.0557229 7.13201e-05 0.0128029 -0.0003189 0.0729117 -0.00697523 0.00398395 0.0583263 -0.0322662 0.0109433 0.0808275 
0.0270592 0.00377395 -0.0218698 -0.054287 -0.0263183 0.0834299 -0.0495711 -0.0576841 0.177806 -0.0145783 0.150727 0.186681 -0.0299551 -0.0508182 0.0146805 0.223916 
0.098548 -0.162345 0.0334707 0.126843 -0.122789 -0.0341047 -0.0699756 0.0316105 0.0906506 -0.0670508 0.183527 0.194882 -0.111865 -0.0584846 -0.108698 -0.00365642 
-0.253049 0.32576 -0.0567067 -0.0925898 -0.0303886 0.285462 0.300991 0.322783 0.266457 -0.112555 0.317382 -0.0715892 -0.192333 0.331526 0.254254 -0.13335 
0.11669 0.185152 0.124901 0.0151163 0.00893186 0.135453 0.154789 0.365383 -0.176541 -0.0165006 -0.111769 -0.0767498 -0.0585512 0.147301 0.0203019 -0.374833 
0.0485784 -0.0867332 0.713014 0.0573155 -0.0412628 0.520703 -0.0724026 0.830138 -0.483153 -0.0818363 -0.507478 0.441546 -0.0578273 -0.114522 -0.200479 -0.466594 
0.0498532 0.0300826 0.0364384 -0.0722643 0.0563454 0.0030169 -0.0697626 0.0200071 -0.0340415 0.0482265 -0.0575014 0.076918 0.082126 -0.0582457 -0.0310627 0.0537555 
-0.0849925 -0.071703 0.217968 -0.109843 -0.130949 0.289715 -0.0456106 0.277267 -0.0885139 -0.0880481 -0.0306713 0.125639 -0.124417 -0.0820078 -0.0135947 -0.11936 
-0.118868 0.223108 -0.31592 0.395404 0.435868 -0.350343 0.181079 0.311787 -0.159341 0.652488 -0.123897 -0.146604 0.133411 0.26215 -0.380588 -0.0849857 
0.210324 0.204512 -0.302389 0.257491 -0.139626 -0.0754482 0.204996 -0.0400593 0.572919 -0.120385 0.660942 -0.115458 -0.211665 0.307968 0.0469916 -0.0439196 
0.0681058 -0.0807586 -0.0399691 0.131638 -0.0526252 -0.0566391 -0.110126 -0.016351 0.116178 0.0184523 0.149859 0.18427 -0.0922587 -0.122085 -0.135799 0.120259 
0.222534 0.130063 -0.0646534 -0.0146538 -0.000286906 -0.0903098 -0.162212 -0.180663 0.0213531 0.0102002 0.0739081 0.113666 0.113949 -0.163275 0.0200418 0.219971 
-0.00213991 0.00710954 0.0052216 0.0593871 0.059961 -0.0312088 0.00510778 0.0244929 -0.0351906 0.0909567 -0.0798064 -0.00731188 0.0356869 0.0130338 -0.0627713 -0.00478865 
0.307866 0.165117 -0.0436945 -0.0718512 -0.0765132 -0.0321914 -0.077026 -0.143103 -0.0528739 -0.132042 -0.0663218 -0.0347972 0.14392 -0.071572 0.14705 -0.00635751 
0.0932492 -0.023459 0.0471315 0.158287 0.183183 -0.121033 0.142105 -0.113369 0.0194431 -0.0499018 0.0505813 -0.0403879 0.139609 0.137816 0.150348 0.00793675 
-0.197257 -0.000570164 0.125318 -0.0875333 -0.0709187 0.234631 0.0416193 0.274025 -0.0542463 -0.0900755 -0.0806498 -0.0385154 -0.235138 0.0776706 -0.0635241 -0.245799 
-0.0759702 0.13926 -0.0853208 0.189634 0.238416 -0.12194 0.178123 0.159313 -0.113797 0.241833 -0.103017 -0.172577 0.114137 0.162589 -0.09911 -0.0906899 
-0.0307379 0.0306198 0.00807257 -0.0316589 -0.0103016 0.0373387 -0.00498499 0.0163002 -8.4236e-05 0.015103 -0.00820276 -0.00788055 -0.00420896 0.0179013 0.00442068 -0.0292418 
0.456646 0.400947 -0.239272 -0.0451678 -0.161461 -0.191343 -0.221261 -0.13505 -0.211424 -0.0168608 -0.212806 -0.162529 0.14712 -0.180793 -0.00823176 -0.19766 
0.273593 0.169299 -0.0409801 -0.0621536 -0.0615853 -0.106379 -0.0751831 -0.150181 -0.127904 -0.10302 -0.0784698 -0.133047 0.154181 -0.0841623 0.197378 -0.0940757 
-0.0829096 -0.107943 0.327389 0.0148009 0.200152 0.152099 0.0990036 -0.139387 0.120934 -0.00205387 0.213276 0.198313 0.206859 0.090899 0.27366 0.331376 
0.280319 0.716096 -0.0466734 -0.390773 -0.160745 0.216592 -0.179062 0.139176 -0.0162249 0.227294 -0.0551963 0.00937115 0.155566 -0.102536 0.397299 0.129142 
0.060771 -0.0391739 0.159655 0.0640877 0.0305428 -0.0373461 -0.215128 -0.150952 0.0897756 0.0759736 0.101312 0.250703 0.110848 -0.188165 0.0209622 0.319272 
-0.00797597 0.11227 -0.00677426 0.112737 0.134858 -0.0852152 0.0350074 0.0284489 -0.0624603 0.202433 -0.114199 0.0292516 0.122242 0.0227994 -0.0883942 0.0571609 
-0.0634916 0.156636 -0.107593 0.0697824 0.0275693 -0.0391796 0.194435 0.173545 0.0314239 0.0679139 0.0568953 -0.176997 -0.0130929 0.159487 0.0878863 -0.15164 
-0.0725758 0.0716662 0.112812 -0.145652 0.0896078 0.099156 -0.119592 0.00982703 -0.064211 0.151427 -0.0903353 0.118016 0.0767465 -0.110013 0.00471467 0.143988 
0.13122 0.193144 -0.163526 0.0824052 0.100457 -0.190149 0.0985396 0.0267785 -0.087609 0.139 -0.0809675 -0.204744 0.191191 0.126393 -0.0290559 -0.135815 
-0.061238 0.0226067 0.210486 -0.155739 -0.028271 0.255207 -0.180455 0.189186 -0.0269809 0.0232333 -0.0422106 0.223929 -0.0988518 -0.168862 -0.0581363 0.0527785 
0.0381352 0.0697596 -0.0425514 0.0176328 0.00659361 -0.0571978 -0.0239989 -0.0031962 -0.0254032 0.0198331 -0.0280188 -0.0342176 0.0483736 -0.0208476 0.0134193 -0.0342012 
0.21491 -0.13286 0.0236538 0.146671 -0.0342465 -0.0520106 -0.166212 -0.0561043 0.10323 0.117148 0.15115 0.341845 0.00590555 -0.133468 -0.208608 0.147865 
0.186277 0.197356 -0.0968267 0.0568017 0.0398179 -0.138811 0.0343154 -0.0657656 -0.0671636 0.0636541 -0.0602332 -0.0998275 0.166329 0.0128907 0.0461921 -0.0648686 
-0.0860364 -0.000857263 0.0295054 -0.0329877 -0.0150485 0.0737819 -0.0287888 0.0803161 0.000375383 0.0277547 -0.0496563 0.0574605 0.000265543 -0.0321983 -0.0536144 0.0194891 
0.0427632 0.596727 -0.422967 0.177545 0.28788 -0.218312 0.28708 0.376424 -0.101397 0.39255 -0.102768 -0.351175 0.119737 0.3894 -0.180753 -0.253382 
0.0744356 -0.140912 -0.0863524 0.53966 0.377764 -0.246943 0.340264 0.0566358 0.0401868 0.203874 0.0251522 -0.118456 0.0457605 0.343578 -0.163323 -0.112057 
-0.141962 0.296151 0.128396 -0.0975749 -0.0327865 0.352909 0.502655 0.0861633 0.335953 -0.141069 0.362532 -0.049608 0.0185133 0.42961 0.570488 0.112694 
0.0951863 -0.0510491 -0.0255722 0.0856297 -0.013989 -0.0608822 -0.0753185 -0.0401949 0.0712126 7.82397e-05 0.0863221 0.0753849 0.00148327 -0.0508105 -0.0800026 0.051684 
-0.0127524 -0.00245757 0.00639956 -0.00832393 -0.00235958 -0.0144955 0.00405608 0.0442489 -0.0321563 0.00157505 -0.0232821 0.00302547 -0.00718729 -0.0133124 -0.0167915 -0.0317945 
0.0492482 -0.137175 0.10327 0.0783525 0.0569727 -0.00187798 0.0791366 -0.021202 0.0220896 -0.072012 -0.00538986 0.00578965 -0.0235977 0.0506728 0.0689822 -0.00742577 
0.442917 0.1354 -0.17504 0.181863 -0.129436 -0.164979 -0.0909632 -0.248074 0.175141 -0.111587 0.231216 0.0568908 0.0630938 -0.0827397 0.105551 0.131306 
0.00505674 -0.00813862 -0.0117533 0.0137462 -0.00604745 -0.01139 -0.0217672 -0.012533 0.00961585 -0.00278084 0.0116252 0.0100041 -0.00804157 -0.0102138 -0.0135442 0.0165726 
-0.03507 -0.164407 0.266722 0.106385 0.287635 -0.00223914 0.137523 -0.0721973 -0.0374963 -0.00404474 -0.0134105 0.0862173 0.201006 0.117756 0.138029 0.196564 
0.126218 0.0700033 -0.036615 -0.0470172 -0.0926628 -0.0296885 -0.048493 -0.0689207 -0.0155941 -0.0280133 -0.0552497 -0.0520694 0.077284 -0.0767541 0.0578415 -0.0159967 
-0.00180479 0.00864113 -0.00364723 0.00613383 0.00905647 -0.0049058 0.00542603 0.00318246 -0.00806817 0.0102985 -0.0026852 -0.0016964 0.0045637 0.00448802 -0.0104 0.00289577 
-0.00309939 0.0259477 -0.013222 0.0095086 0.0244653 -0.0054343 0.0014646 0.0123382 -0.0212344 0.0456768 -0.0114748 0.00798179 0.000830919 0.0233037 -0.0148686 -0.0201962 
-0.0827991 -0.016252 0.107867 -0.123173 -0.0275795 0.171518 -0.116865 0.142992 -0.0383481 0.0501115 -0.0522012 0.083894 -0.0448019 -0.0836531 -0.0437773 0.0303736 
0.2202 0.146186 -0.335995 0.243241 -0.00672075 -0.130296 -0.0494216 0.0858054 0.212867 0.172092 0.351164 -0.0173879 -0.0967166 -0.0035516 -0.243491 0.0186239 
0.00593326 0.0105944 -0.00741777 -0.0170215 -0.00562007 0.0168229 -0.00781866 -0.00313839 0.0134757 -0.0206626 0.00436457 -0.0031434 -0.00285802 -0.00318598 0.0116408 -0.0185594 
-0.0173082 0.0864556 -0.0719688 -0.0790057 -0.123166 0.0827791 0.0132403 0.0297531 0.145934 -0.104538 0.197115 -0.0382058 -0.0944763 0.0395265 0.0235095 -0.00240815 
-0.141173 0.179696 -0.077393 -0.104764 -0.0895218 0.0938469 0.201849 0.214293 0.033965 -0.0283115 0.037149 -0.179973 -0.15586 0.222188 0.0513513 -0.163892 
-0.0104641 -0.0233321 -0.0377004 0.0193562 0.0320248 0.00949549 0.0120355 0.0745957 -0.0247781 0.0927484 -0.0148124 -0.0468331 -0.0498635 0.0474524 -0.01331 -0.0541496 
-0.00289037 -0.0381353 0.154137 -0.00138712 0.0833745 0.0553996 0.0822081 -0.0353751 -0.00346625 -0.0373188 0.0299643 0.0671741 0.0567538 0.0770929 0.10477 0.0831662 
0.00725731 -0.0271449 0.04438 0.0337293 0.0331084 -0.0120585 0.0364479 -0.018419 0.000107271 -0.0170343 -0.00566715 0.00628044 0.0534197 0.0404677 0.036641 0.0216144 
0.180123 0.00248844 -0.0361555 -0.0105738 -0.130367 0.0165333 -0.14764 -0.0755309 0.164185 -0.0502238 0.139378 0.192422 -0.00200676 -0.120702 0.00402757 0.0844605 
0.0711455 0.02631 -0.0362231 0.00647268 -0.0476607 -0.0120051 -0.0268803 0.027538 0.0462335 -0.0337603 0.0668692 0.0233687 0.00267326 -0.0441544 -0.0240339 -0.0167188 
0.276535 -0.170791 0.220127 0.529252 0.386554 -0.155223 0.531963 -0.123618 0.158415 0.102274 0.270647 0.00133841 0.345179 0.482962 0.248264 0.0609547 
0.0840347 0.748589 -0.00105705 -0.134687 0.221941 0.115613 0.16558 0.325661 -0.0470315 0.366319 -0.0676225 -0.163607 0.362671 0.167302 0.272389 0.0224386 
-0.0705279 0.160081 -0.120923 0.351575 0.487689 -0.356449 0.183157 0.283902 -0.333477 0.509697 -0.41685 -0.130433 0.274131 0.196841 -0.354848 -0.119601 
-0.0172014 0.0263286 -0.0299027 0.134755 0.166497 -0.0958679 0.0743333 0.0986689 -0.0963503 0.17048 -0.122796 -0.0470802 0.078244 0.0910248 -0.0884715 -0.0613376 
-0.434103 0.615532 -0.17098 -0.452047 -0.203154 0.802712 0.671927 0.69154 0.598007 -0.261166 0.577062 -0.369773 -0.304454 0.684977 0.51661 -0.325017 
0.0751919 0.163966 -0.113107 -0.128355 -0.176458 0.120357 0.0916568 0.00302449 0.286045 -0.16878 0.275969 -0.0504157 -0.194507 0.115746 0.0839978 -0.0671695 
-0.00580479 0.0146498 -0.0839437 0.0809445 0.0658417 -0.0588371 0.0860634 0.0497481 -0.0677054 0.093628 -0.0515767 -0.066492 0.0462582 0.0894904 -0.0723825 -0.0517371 
0.0904799 0.0421582 0.0329601 -0.0606779 -0.0679109 0.0533412 -0.0179984 0.0120098 -0.0072709 -0.0450777 0.00227381 0.0326167 -0.0184924 -0.0184869 0.0158165 -0.0221944 
0.275413 0.272626 -0.0730965 -0.117293 -0.143497 -0.104487 -0.121719 -0.110861 -0.162866 -0.14531 -0.142374 -0.169264 0.130207 -0.111674 0.191765 -0.144725 
0.634472 0.0281376 0.0876104 0.449306 -0.0233338 0.0572894 -0.074033 -0.0985932 0.527625 0.0192547 0.557025 0.712468 0.0180615 -0.10907 -0.0310972 0.695125 
-0.0104275 0.0146557 0.00255683 -0.004334 -0.00848289 0.0203732 0.00996292 0.0237641 0.0025093 -0.0108506 0.0378906 -0.0137135 -0.00647811 -0.00810112 0.0298329 -0.0275855 
0.0405932 0.0829795 -0.0404632 -0.0390742 -0.00252533 -0.0343988 0.000806607 -0.0348414 -0.0372971 -0.0397222 -0.0413694 -0.0928439 0.0606573 0.00205974 0.042488 -0.0629839 
-0.0205002 0.0681824 -0.00837583 0.00113126 0.0427762 0.157143 0.381897 0.034509 0.235708 -0.0832829 0.246477 -0.0699028 0.100186 0.319918 0.418383 0.00147077 
0.417324 0.465585 -0.0889603 -0.0660033 -0.0881059 -0.0509035 -0.071554 -0.178675 -0.0613419 -0.125773 -0.0508469 -0.103547 0.297486 -0.0982081 0.29963 -0.0315871 
0.391131 0.29312 -0.178152 0.0670998 -0.0479975 -0.179053 -0.0363873 -0.224537 -0.0962966 -0.023164 -0.114493 -0.194469 0.211367 -0.0565752 0.118613 -0.0487781 
0.025775 0.037613 0.0349353 -0.0366692 0.00814585 0.0606694 -0.0112624 0.0361639 -0.0167172 0.0100774 -0.0387645 -0.00229944 0.0395852 -0.0265589 0.00199955 -0.0179494 
0.945541 0.928851 -0.327514 -0.664525 -0.106924 -0.110204 -0.295237 -0.585727 -0.493834 0.175553 -0.593232 -0.375705 0.916926 -0.329159 0.938808 -0.106583 
0.288208 -0.288424 -0.0898568 0.299039 -0.141622 -0.122499 -0.0325523 -0.26285 0.463541 -0.186066 0.58753 0.35907 -0.0892187 -0.0545727 -0.0174994 0.392903 
-0.0800344 0.105585 0.222383 -0.0851975 0.155607 0.138865 -0.0992497 0.064017 -0.108661 0.263062 -0.141611 0.294697 0.201776 -0.124635 -0.074059 0.26172 
0.208349 0.443968 -0.241709 -0.0928829 -0.029261 0.0202788 0.120665 -0.0287527 0.0164211 -0.092365 -0.0170203 -0.371308 0.0697608 0.187695 0.256573 -0.252521 
0.228645 0.0796809 0.122905 0.127369 0.118103 -0.0401934 0.168157 -0.0741433 0.0321025 -0.132814 0.0506482 -0.0589855 0.143015 0.131793 0.263385 -0.0361399 
-0.0110504 -0.060185 0.128539 0.160903 0.201349 -0.0500362 0.324969 -0.110551 0.0466074 -0.058749 0.104664 -0.0819857 0.208977 0.21461 0.241724 0.0304018 
0.102524 -0.273742 -0.0315264 0.59303 0.372351 -0.245308 0.129693 0.242559 0.028106 0.321333 0.105778 0.103927 0.0270841 0.207993 -0.217506 0.00972701 
0.0304333 -0.0948272 0.0799372 0.0642522 0.0768833 0.0196291 0.12201 -0.10998 0.0503732 -0.124129 0.0921298 -0.0146169 0.0525053 0.0880817 0.157754 0.0550164 
0.016349 0.0207423 -0.0342046 0.012625 -0.0550497 0.0588946 0.000399163 -0.000744648 0.0698437 -0.0474391 0.072402 -0.0165317 -0.0268296 -0.0261363 0.0205778 -0.00872269 
0.243259 0.170664 -0.0973051 -0.0373539 -0.108064 -0.0844913 -0.0257927 -0.116116 -0.0284521 -0.0930443 -0.0648331 -0.0869785 0.139465 -0.053048 0.168553 -0.0997099 
0.116698 -0.0941257 -0.138812 0.193819 -0.131577 -0.161362 -0.179302 -0.0801067 0.0962538 -0.0397068 0.122879 0.126063 -0.121453 -0.118591 -0.16631 0.124173 
0.212546 0.590441 -0.0382936 -0.234337 0.100715 0.14675 -0.0947601 -0.179251 -0.211412 0.312069 -0.265988 0.142872 0.550239 -0.126162 0.387649 0.227218 
-0.0533965 -0.0613925 0.117741 -0.0369157 -0.020684 0.110049 -0.0872842 0.156527 -0.0360491 -0.00529108 -0.0750958 0.0913102 -0.0624012 -0.0683427 -0.0660195 -0.0656684 
-0.0365511 0.385531 -0.151497 -0.086412 -0.148627 0.305705 0.281669 0.168028 0.337295 -0.0317414 0.417512 -0.0835514 -0.170574 0.253362 0.186552 -0.0222973 
-0.239151 0.368848 -0.191775 -0.138739 -0.18259 0.267726 0.384948 0.522162 0.0902092 -0.0954097 0.0128252 -0.349794 -0.240395 0.324186 0.108989 -0.400928 
0.292961 0.200858 -0.141792 -0.0945383 -0.0276697 -0.128444 -0.124725 -0.129637 -0.0553057 -0.0153885 -0.0874008 -0.0776171 0.182615 -0.107163 0.169695 -0.0589522 
0.45169 -0.304033 -0.110224 0.376255 -0.119357 -0.152223 -0.228038 -0.181756 0.418805 -0.0565428 0.469734 0.426076 -0.177388 -0.20006 -0.305935 0.368352 
0.139064 -0.243924 0.191501 0.0599499 -0.0605043 0.109582 0.00127044 -0.0141953 0.00313159 -0.256268 -0.00274155 0.169647 -0.0634585 -0.0325509 -0.00339036 -0.0618792 
-0.00466727 0.00741115 -0.0236269 0.0244979 0.0360601 -0.0436359 -0.0354492 0.00263437 0.0636786 0.0248001 0.0239363 0.0417302 -0.0209143 -0.0158552 -0.0403494 0.077412 
-0.0349398 0.0315591 -0.0313069 0.131861 0.134981 -0.0979705 0.0183081 0.0371259 -0.0312489 0.147069 -0.0474281 -0.00648653 0.0974012 0.0260053 -0.0665705 0.00869817 
0.207532 -0.150375 -0.0143692 0.278193 0.0872509 -0.159361 0.140459 -0.115385 0.170703 -0.0871564 0.214443 0.0768566 0.0129006 0.0963417 0.12009 0.128645 
-0.0881597 -0.0242625 0.0972699 -0.0548349 -0.0540405 0.192963 0.0392805 0.233267 0.0448999 -0.048186 0.0161869 0.0663884 -0.0753759 0.046978 -0.0018536 -0.087206 
0.413822 0.517099 -0.307268 -0.12765 -0.104165 -0.19283 -0.125573 -0.163352 -0.294239 0.0218169 -0.325076 -0.339634 0.340369 -0.113519 0.224337 -0.36401 
-0.135758 0.260454 -0.0515496 -0.113494 -0.000993649 0.174798 0.170589 0.257001 0.171573 0.0595474 0.0916338 -0.109025 -0.0107019 0.156722 0.0839175 -0.0767575 
0.195561 -0.148994 -0.0885044 0.148407 -0.0474878 -0.132047 -0.0336365 -0.156837 0.152097 -0.0843335 0.283557 0.155213 -0.0546639 -0.0724218 -0.107562 0.180701 
-0.304417 0.0693843 0.33045 -0.0105719 0.236865 0.367725 0.194813 0.606514 -0.108922 0.257877 -0.134153 0.167818 0.045545 0.199609 -0.137945 -0.0789383 
0.0147002 0.0370844 0.02136 -0.0254887 0.0116718 0.026069 -0.0384215 -0.0181747 -0.0214888 0.0270485 -0.000219199 0.0491167 0.0494583 -0.0243928 0.00515786 0.0743013 
0.190246 0.239191 -0.161955 0.453879 0.349808 -0.35331 0.212495 0.0220672 -0.0106116 0.348068 -0.0294598 -0.192088 0.310969 0.279996 0.0191246 -0.0786151 
-0.00782755 0.00234013 0.026108 -0.0040617 -0.0112502 0.0720142 -0.0375198 0.0120713 -0.00643644 -0.0064978 0.00972689 0.0130321 -0.0241553 -0.0460865 -0.0820082 -0.0128746 
-0.000184978 4.6845e-05 -0.000182791 -3.52534e-05 0.000154031 0.000153334 5.2415e-05 5.26148e-05 -0.000273649 5.03695e-05 -0.000231114 -6.93072e-05 2.80451e-05 1.53882e-05 0.000132885 -2.71986e-06 
0.0298368 -0.111402 0.138742 0.0558229 0.0751198 0.0657426 0.0660727 -0.0520344 -0.00304796 -0.0732647 0.0300048 0.0624513 0.0701655 0.0377675 0.0748669 0.0817978 
-0.18881 0.432323 -0.0950032 0.212701 0.513937 0.00437668 0.605182 0.323617 0.193274 0.459193 0.182965 -0.228636 0.260872 0.653623 0.222377 -0.0939315 
0.379528 0.520191 0.113129 -0.252658 -0.0594435 -0.0129778 -0.229399 -0.102451 -0.172402 0.0540855 -0.174628 0.0281019 0.361714 -0.23966 0.428518 -0.0164578 
-0.142585 0.331769 -0.0353343 -0.118077 -0.0670799 0.222014 0.299322 0.17912 0.164353 0.0117526 0.128805 -0.0824769 -0.102851 0.244152 0.172903 -0.0806882 
0.100392 -0.169246 0.2186 0.2046 0.0931837 -0.0803545 0.169248 -0.071002 0.0616218 -0.12208 0.100811 0.025655 0.0467771 0.112035 0.100563 0.0344957 
-0.273347 0.277293 0.331087 -0.269102 0.120206 0.387401 -0.134354 0.0269238 -0.0228059 0.31152 -0.0528738 0.341922 0.198267 -0.135839 0.0864477 0.446884 
-0.145427 0.00692681 0.171283 0.252977 0.370773 0.00372608 0.324977 0.145773 0.102237 0.253492 0.0117299 0.0561251 0.168862 0.274936 0.140964 0.0828026 
-0.588768 0.77313 -0.153516 -0.277446 0.165316 0.626868 0.43144 0.905527 0.295169 0.379277 0.218556 -0.157986 0.0126321 0.597709 0.28351 0.032956 
0.072829 -0.246248 0.0213782 0.288358 -0.0709832 -0.0141873 -0.101473 0.217178 0.0664045 0.087872 0.18714 0.288315 -0.179768 -0.0907517 -0.36652 0.0262236 
0.202568 -0.129956 -0.00222276 0.224929 -0.089213 0.00512309 -0.172273 0.145436 0.210545 0.0427384 0.238828 0.344615 -0.0954097 -0.187862 -0.221348 0.154848 
-0.0307576 0.116497 -0.289559 0.316601 0.286161 -0.279303 0.238241 0.164242 -0.0132 0.270217 0.0229613 -0.244729 0.0908135 0.282164 -0.086884 -0.184516 
0.0344992 0.0959447 0.040874 -0.0653022 0.0898344 -0.0126747 -0.0858711 -0.0621429 -0.0126497 0.0916758 -0.0254496 0.0940311 0.174035 -0.0784366 0.0462651 0.151695 
-0.0678188 0.00598867 -0.0131209 0.100268 0.0658399 -0.051294 0.0647461 0.109338 -0.0487382 0.117754 -0.057104 -0.0455861 0.0206095 0.082665 -0.105243 -0.0944899 
-0.0843084 -0.15403 0.310106 -0.127222 -0.128593 0.227517 -0.118672 0.211215 -0.0651935 -0.15548 -0.0500721 0.149221 -0.157221 -0.0980394 0.0212154 -0.129015 
-0.118506 -0.217056 0.367379 0.00476694 -0.0317454 0.344034 -0.0610102 0.379818 -0.0199587 -0.0138824 -0.0278158 0.282555 -0.153921 -0.0262904 -0.189651 -0.0355058 
0.40546 -0.113212 -0.129494 0.233328 -0.0453241 -0.208417 -0.159962 -0.261203 0.16057 -0.0862448 0.215091 0.192874 -0.020644 -0.176849 -0.0520497 0.229497 
-0.136049 0.0948677 -0.126189 0.305236 0.280119 -0.125191 0.160637 0.449117 -0.229447 0.473119 -0.292438 -0.116601 0.0576241 0.205474 -0.38093 -0.259218 
0.497021 0.0352009 0.332102 0.293064 0.0118455 -0.0420522 0.123506 -0.180508 0.126779 -0.349529 0.169232 0.116424 0.33078 0.0466564 0.553347 0.0581828 
-0.0774464 0.0644011 -0.0735061 -0.0755888 -0.021038 0.121963 0.0757647 0.132976 0.099164 -0.0585915 0.124995 -0.0669117 -0.109061 0.104808 0.0823419 -0.0727403 
0.36477 0.144438 -0.00265885 0.0736834 0.0105623 -0.171876 0.0972087 -0.331398 0.0856736 -0.179518 0.0853112 -0.134501 0.219503 0.0583245 0.296136 0.00993013 
0.44387 -0.237239 0.00393443 0.361958 0.0185808 -0.14586 -0.0146316 -0.242209 0.481221 -0.226071 0.500696 0.304737 0.0307992 -0.00908832 0.0577129 0.453017 
0.000926127 0.00822874 0.0140616 0.000438004 0.0356685 -0.00567907 -0.0313688 -0.0370602 -0.0112338 0.0122811 -0.0017821 0.0225717 0.019178 -0.0446662 -0.00423589 0.068373 
0.0219644 -0.179943 0.0615184 0.140201 -0.0301533 0.0459139 -0.0334327 0.0777324 0.348442 -0.0895256 0.386936 0.293268 -0.0520714 0.0432112 -0.0847124 0.227574 
0.0408906 0.0270178 -0.0211398 -0.0105576 -0.0419709 -0.016105 -0.0634811 -0.0376104 0.018095 0.00934995 0.0139003 0.0146099 0.0159545 -0.0488319 0.00139622 0.0061721 
0.479041 -0.471552 0.543982 0.63325 0.567324 -0.253495 0.56202 -0.360484 0.41166 -0.188648 0.511012 0.228865 0.47035 0.461035 0.581028 0.436601 
-0.00369117 -0.000245486 0.00184601 -0.00529108 0.00164218 -0.00129127 0.00124171 -0.00134581 0.00042232 -0.00239855 0.00335219 0.00434753 0.00130371 0.000609622 0.00185904 -0.00400436 
0.0644283 0.0846849 -0.0192155 -0.00211035 -0.00825759 -0.0286842 -0.00376255 -0.0151265 -0.00902424 0.0100993 -0.00693158 -0.0080747 0.052092 -0.00639356 0.0268531 -0.0183057 
0.0816127 0.0395628 0.0624196 0.0581978 0.102384 -0.0456942 0.018829 -0.089639 -0.0124641 0.0495125 -0.03499 0.0488411 0.174844 -0.0292292 0.0934232 0.107506 
-0.128311 0.224818 -0.0175251 -0.126901 -0.0363532 0.251544 0.103603 0.122248 0.229484 -0.0373805 0.158778 0.0264686 -0.0108345 0.155147 0.0998875 0.075685 
-0.219983 0.0827533 -0.13723 0.0724155 0.0186134 0.0163896 0.158176 0.366259 -0.0459427 0.129969 -0.103585 -0.207341 -0.118167 0.242221 -0.117604 -0.256649 
-0.149959 0.693577 0.196077 -0.246054 0.316247 0.344363 0.0445788 0.310462 -0.0376436 0.550722 -0.0669775 0.323312 0.434544 -0.0172107 0.205516 0.356533 
-0.0240152 -0.0501971 0.0636574 -0.00427698 0.0620498 0.0544674 -0.0896939 0.00960653 0.0587188 0.0527157 0.0666139 0.266329 -0.0177563 -0.0709448 -0.12957 0.225946 
0.0472888 -0.0219102 -0.0220899 0.0152996 -0.0428296 0.0389827 -0.0601304 -0.0289399 0.0719355 -0.0502705 0.0558097 0.0255505 -0.0994378 -0.0395343 -0.0240679 0.0379159 
0.00683428 0.0143738 0.0101141 -0.00917849 0.00117794 -0.0075865 -0.0178111 -0.0170744 -0.0141465 -0.00190899 -0.00244232 0.00490807 0.0229371 -0.00289849 0.00799058 -0.0154115 
-0.0728223 -0.240301 0.326488 0.161544 0.169175 0.0379085 0.0549009 -0.0111215 -0.0525219 0.0638147 -0.0621096 0.222298 0.108898 0.0173225 0.114711 0.143915 
0.0619412 0.0308111 -0.0581985 0.0432781 -0.015184 -0.0514809 0.0036881 0.00871748 -0.00036005 -0.0127178 0.0221905 -0.0202866 0.0371708 0.00253149 0.0547981 -0.0128858 
0.150041 0.103402 -0.0414656 0.0240961 -0.03894 -0.0367525 -0.0256595 -0.0247832 0.0232346 -0.0879749 0.00224948 -0.0453552 0.0430059 -0.0231788 0.081139 -0.0441508 
-0.00232835 -0.0501487 0.0502635 0.0495242 -0.00786689 0.0664389 -0.0379198 0.102169 0.0130037 0.0666632 0.0397182 0.131589 -0.0798497 -0.0432528 -0.111014 0.0463722 
0.165008 0.556946 -0.0648497 -0.115352 0.124487 0.0149681 -0.226215 0.0772411 -0.0503243 0.396264 -0.0845697 -0.00561412 0.244316 -0.132888 -0.0296445 0.140267 
1.09689 1.00979 -0.303108 -0.553312 -0.32101 -0.280616 -0.442939 -0.66838 -0.443626 -0.15675 -0.493739 -0.365842 0.986884 -0.441387 0.994023 -0.130835 
0.323187 -0.313032 0.0862096 0.575887 0.30012 -0.224982 0.361192 -0.207812 0.25375 -0.0274393 0.350991 0.0137758 0.197363 0.304239 0.166152 0.11167 
-0.0103352 0.0935168 -0.193823 0.00044958 -0.00161075 -0.0292952 0.0277325 0.11233 0.166257 0.0315827 0.15883 0.0159914 -0.0711184 0.0492417 -0.0616205 0.0157619 
0.0744906 -0.086824 0.12483 0.117504 0.0875786 -0.055301 0.0847073 -0.0826707 0.0518381 -0.0751299 0.0604635 -0.0270599 0.061026 0.028047 0.096253 0.0331223 
0.261173 -0.119327 0.332136 0.420384 0.325219 -0.215736 0.393481 -0.308245 0.232582 -0.130531 0.288469 0.0312416 0.345923 0.329906 0.469177 0.220724 
-0.0311238 0.0640216 -0.0611275 -0.0351534 -0.0606571 0.0311173 0.0633951 0.0428928 0.0034251 0.00163083 0.0203855 -0.0813741 -0.0419745 0.0408066 0.0174893 -0.101784 
0.0451056 -0.0550285 -0.0287055 0.1675 0.0532471 -0.0793758 0.201946 -0.0498765 0.102967 -0.0326619 0.148421 -0.00991417 -0.00114775 0.113592 0.0683918 0.0434221 
-0.0149919 0.0417765 0.103777 -0.0601695 -0.11174 0.158416 0.00329896 0.187443 0.00804419 -0.0721771 0.00828855 0.010079 -0.0891974 0.00202501 -0.00124626 -0.119909 
0.168868 -0.0318235 0.112604 0.200688 0.129866 -0.0828197 0.21636 -0.203949 0.0714918 -0.115543 0.125104 -0.054881 0.193488 0.127544 0.285685 0.06084 
0.0923866 -0.363829 0.216001 0.158475 -0.0778221 0.0542829 -0.119951 -0.0740416 0.0780288 -0.11266 0.093386 0.354904 -0.0697631 -0.130532 -0.0949738 0.183531 
0.71499 0.195976 0.601519 0.39732 0.495661 -0.128771 0.289169 -0.51951 0.138826 0.0454859 0.219441 0.333831 0.772571 0.0892096 0.738314 0.59449 
0.0171699 -0.0137807 0.164532 -0.0374032 -0.141469 0.114018 -0.175697 0.323024 -0.111655 0.00433673 -0.114692 0.103737 -0.0251956 -0.132693 -0.206645 -0.105206 
0.045952 0.0371926 -0.179252 0.209525 0.0613653 -0.117184 -0.0256942 0.103218 0.0635393 0.224874 0.0441179 -0.0165977 -0.00770928 0.0124923 -0.126559 0.0558317 
-0.095997 0.426516 -0.0731854 -0.183439 -0.21697 0.511727 0.280066 0.372998 0.655099 -0.218241 0.718377 -0.0303632 -0.23297 0.401295 0.339899 0.0123757 
-0.00263239 -0.0258985 0.119545 0.0378097 0.080032 0.0490245 0.131295 0.00734834 0.0968165 -0.0506557 0.0704738 0.0218516 0.140992 0.118802 0.244478 0.0914745 
0.41701 -0.0808015 -0.220342 0.329451 -0.122885 -0.141457 -0.139658 -0.106136 0.384471 -0.0377216 0.409891 0.242562 -0.231537 -0.0824349 -0.158867 0.181958 
-0.0779699 -0.0767676 0.138364 -0.0901352 -0.0729648 0.150565 -0.0923237 0.204535 -0.0738211 -0.0635139 -0.069355 0.0904889 -0.135175 -0.0591828 -0.0906731 -0.0917023 
0.443249 -0.113855 -0.0662028 0.109269 -0.181039 -0.134792 -0.131827 -0.151609 0.152358 -0.229784 0.180636 0.194255 -0.231896 -0.139762 -0.0757757 -0.0106369 
0.00544606 -0.033481 0.0225807 -0.000755555 -0.000142451 0.0302035 -0.00196969 0.041755 0.00536466 -0.0205556 -0.0154283 0.0338332 -0.00718466 -0.00654678 -0.0189772 -0.00630934 
0.238432 -0.250146 -0.0883011 0.179377 -0.153559 -0.115517 -0.261353 -0.144228 0.214776 -0.0916686 0.25169 0.225134 -0.0904273 -0.19082 -0.20912 0.226731 
0.162639 0.156204 -0.032444 -0.0312742 -0.0360385 -0.0253972 -0.00380704 -0.0705676 -0.0187924 -0.023389 -0.0267398 -0.0509951 0.0757483 -0.0227089 0.0616086 -0.0179869 
0.257244 -0.174012 0.0915509 0.117639 -0.123599 -0.0282531 -0.174781 -0.0175998 -0.0169181 -0.126799 0.00400302 0.155154 -0.0844309 -0.118407 -0.0493099 -0.0637424 
-0.0112146 -0.017602 0.0390382 0.0906095 0.0769816 -0.0334566 0.120401 -0.0524611 -0.0169258 -0.0155451 0.0200555 -0.0671314 0.0597265 0.0936972 0.0874447 -0.0266509 
-0.104987 0.134049 0.0719663 -0.14197 -0.00549346 0.108078 0.0974124 0.0702364 -0.00492361 0.0867873 0.0232954 0.0290938 0.000700044 0.0640509 0.0169387 0.0630838 
-0.00482249 0.0295365 -0.0120921 -0.0246437 -0.0111674 0.0367767 0.0210707 0.0090237 0.0224897 -0.0169061 0.0181798 -0.00446384 -0.0235234 0.0337634 0.0188834 -0.0206028 
0.829355 -0.517532 -0.298133 0.721844 -0.330297 -0.425131 -0.475259 -0.539631 0.860071 -0.32757 0.825284 0.738398 -0.361027 -0.491703 -0.439173 0.663437 
0.129481 -0.207708 0.108067 0.322364 0.156984 -0.0970413 0.166293 -0.159483 0.15364 -0.164755 0.2353 0.0820531 0.123516 0.129171 0.136106 0.173529 
0.291986 0.405278 0.419872 -0.30892 -0.069745 0.217472 -0.504265 -0.126516 -0.123886 0.193978 -0.174399 0.664403 0.409647 -0.55013 0.0967723 0.538503 
-0.162361 0.117052 0.0591949 -0.121722 -0.0561412 0.268592 0.249926 0.197395 0.10391 -0.0300742 0.141886 -0.0543481 -0.124667 0.16084 0.175958 -0.0932599 
0.176633 0.132376 0.0718293 -0.0916799 -0.0994909 0.0540569 -0.0338612 0.0369027 -0.0877412 -0.118517 -0.110832 -0.0641672 -0.0267118 -0.0261368 0.0682071 -0.217041 
0.543603 -0.718771 -0.0073792 0.897629 0.153273 -0.347849 0.391752 -0.233308 0.799629 -0.399697 0.852281 0.395667 -0.185445 0.393173 -0.0782861 0.292068 
-0.00556293 -0.020577 0.0178856 -0.00815211 -0.0107931 0.0152778 0.00238493 -0.00596822 -0.00509403 -0.0091367 -0.00877664 0.00282692 -0.00402253 -0.0056774 0.010402 0.00725203 
-0.0312318 -0.00930518 0.158093 -0.0648685 -0.0746072 0.195473 0.0271584 0.208741 0.052113 -0.0759068 0.0146283 0.051354 -0.0649277 0.00129299 0.0241903 -0.0821641 
0.272593 0.275561 -0.0400146 0.00706985 0.10324 -0.108268 0.138669 -0.148408 -0.0534742 -0.0202204 -0.0319446 -0.180362 0.310207 0.107564 0.258684 -0.00565499 
0.441178 0.424832 -0.193782 0.0325875 0.000340257 -0.205125 0.00127843 -0.0809433 -0.122143 0.106623 -0.0998083 -0.19434 0.331247 0.0324341 0.166309 -0.0826397 
-0.00180094 -0.0186315 0.13925 -0.0802407 -0.132421 0.147289 -0.0711555 0.242008 -0.100585 -0.0741931 -0.102559 0.0588242 -0.112067 -0.0924922 -0.0969921 -0.224806 
-0.123316 0.337315 0.491719 -0.157302 0.341682 0.424913 -0.120202 0.077672 -0.0488515 0.474314 -0.0576567 0.510174 0.442181 -0.0957692 0.12436 0.575583 
-0.018773 -0.101654 -0.000607301 0.12336 0.125901 -0.037137 0.0852629 -0.0228644 0.0202657 0.0021484 0.0354103 -0.0174555 0.0750722 0.072582 0.0982632 0.0321489 
-0.0472091 -0.0918618 0.209559 0.0701078 0.097844 0.122641 0.136023 0.00685636 -0.0122626 -0.0851497 0.00545641 0.0257634 0.0368956 0.130678 0.126777 0.0266403 
0.0528115 -0.378977 0.174132 0.0851673 -0.218064 0.0530738 -0.236445 0.0431231 0.178633 -0.181894 0.186286 0.453307 -0.3166 -0.242755 -0.30755 0.0598793 
-0.129968 0.290956 -0.208476 -0.126594 -0.0131026 0.120594 0.243892 0.224548 0.102183 0.0555983 0.0652527 -0.187661 -0.0357186 0.252872 0.10545 -0.0837942 
0.233188 -0.101775 -0.167455 0.154797 -0.102999 -0.181305 -0.000361897 -0.150015 0.169521 -0.139509 0.231953 0.0726703 -0.151448 0.00559895 -0.0124158 0.12792 
-0.0326272 0.0405362 0.052212 -0.0558503 0.0226699 0.0208351 -0.0400103 -0.0354173 -0.0141286 0.0717048 0.010256 0.09992 0.00904949 -0.0465988 -0.0212911 0.10475 
0.0954851 0.086687 -0.117762 0.244106 0.114518 -0.121423 0.0882819 0.057784 -0.0535984 0.180474 -0.0243828 -0.0619893 0.0245752 0.0889287 -0.11591 -0.0463706 
0.24087 -0.133742 -0.245039 0.205363 -0.260625 -0.146632 -0.0735861 -0.144109 0.249654 -0.205421 0.284248 0.146244 -0.243973 -0.0398366 -0.0477777 0.135003 
-0.0576129 -0.0267272 0.215083 0.115062 0.211487 0.0468542 0.0332054 -0.0147099 0.0201095 0.209541 0.0485895 0.1438 0.154764 -0.0134449 0.0438821 0.270541 
-0.100067 0.0158508 0.368683 -0.0836206 0.0803886 0.334698 0.0172067 0.31297 -0.0900748 0.123393 -0.13039 0.284092 0.136267 -0.0140958 0.00577199 0.0417021 
-0.0289045 0.0431631 -0.00629624 0.0384083 0.0333483 0.0181865 0.0587044 0.0497255 -0.0153893 0.0184366 -0.00629276 -0.0279721 0.039986 0.0476088 -0.0316408 -0.0252719 
0.404806 -0.360248 0.338395 0.626919 0.517381 -0.211204 0.665109 -0.371167 0.359118 -0.309799 0.446659 -0.0672621 0.438879 0.627711 0.62734 0.206071 
0.509627 -0.0991951 0.202665 0.456346 0.294793 -0.135313 0.410529 -0.281695 0.457483 -0.320868 0.518364 0.00525657 0.287712 0.346882 0.489228 0.171865 
-0.112231 0.205829 -0.127764 -0.199659 -0.137734 0.221151 0.19407 0.14152 0.125959 -0.0486199 0.216468 -0.205323 -0.168166 0.18811 0.180465 -0.0818693 
0.00983313 -0.0327507 0.0357669 0.13451 0.129885 -0.0510358 0.11962 -0.0702605 0.02171 0.0133485 0.0411609 -0.0200657 0.106672 0.106599 0.0484421 0.0100458 
0.370396 -0.330468 0.0145228 0.381179 0.0290584 -0.251867 -0.0148159 -0.269035 0.324214 -0.121557 0.383455 0.249432 0.0606259 -0.0358298 -0.0395075 0.298374 
0.113884 -0.227189 0.319534 0.3389 0.245139 -0.00778011 0.525275 -0.219872 0.26793 -0.293564 0.411131 -0.0173712 0.238396 0.389253 0.586593 0.115777 
0.481739 -0.155537 -0.167664 0.292845 -0.203404 -0.314592 -0.286136 -0.308862 0.303971 -0.128743 0.247718 0.187444 -0.044563 -0.330724 -0.215582 0.246389 
0.256553 -0.264944 -0.078585 0.265991 -0.12911 -0.166805 -0.228561 -0.193476 0.288805 -0.0723446 0.339069 0.284686 -0.159012 -0.219549 -0.267928 0.29202 
0.0190014 -0.0890123 0.0869283 0.0504507 0.0311871 -0.00412768 0.117982 -0.0836263 0.0660836 -0.0948705 0.0826709 -0.00803018 0.0153528 0.0809228 0.125616 0.0361123 
0.243789 0.0274107 -0.126276 0.540141 0.41009 -0.376611 0.259313 -0.0355613 -0.103846 0.234055 -0.0954497 -0.168313 0.330642 0.254503 -0.0542619 -0.13737 
-0.00750472 0.018024 0.00194825 -0.00373598 -0.000111396 0.000838464 -0.0215691 0.0291573 -0.0312696 0.0138966 -0.0338641 0.010713 -0.000390831 -0.0106012 -0.0466905 -0.0143937 
0.020372 0.0133582 -0.0276853 0.00805627 -0.00243201 0.0058517 -0.000763512 -0.00683815 0.00543229 -0.00934196 0.000376167 -0.00369206 0.00198157 0.0138997 0.0242248 -0.0158374 
0.502548 0.565124 0.169052 -0.256978 -0.107961 0.131512 -0.321165 -0.140911 -0.230452 0.0191716 -0.311189 0.101413 0.413005 -0.360652 0.389069 0.213819 
-0.324206 0.412278 0.519745 -0.533196 0.323326 0.514223 -0.267414 0.0875335 -0.130435 0.557113 -0.235592 0.592322 0.47446 -0.307904 0.159195 0.537792 
-0.0203405 0.0613505 -0.0951275 0.00335169 -0.0804932 0.056901 0.0489011 0.0799353 0.128295 -0.0437257 0.0656153 -0.0231172 -0.0480511 0.0786456 0.0190705 -0.013357 
0.17709 0.0520557 -0.221663 0.537511 0.334972 -0.277805 0.132179 -0.0118752 -0.047083 0.459093 -0.0169342 -0.0348049 0.218271 0.169425 -0.102028 0.0555208 
-0.000806445 -0.00834652 0.0795317 0.0301318 0.0702092 -0.0315992 0.0880166 -0.0605853 -0.00669187 -0.0254148 0.0192214 -0.0123663 0.0742242 0.0524857 0.0977157 0.00534995 
-0.0422563 -0.108574 0.0940367 -0.00139044 -0.0328656 0.0762742 0.0120639 0.0919723 -0.0180987 -0.0897162 -0.000565606 0.0629766 -0.0757279 0.0216848 0.00338008 -0.070266 
-0.223659 0.509509 -0.0623891 -0.0791616 0.185548 0.186613 0.219095 0.259101 0.129563 0.30568 0.108961 -0.00856795 0.155597 0.284242 0.0887574 0.122316 
-0.0796973 0.104424 -0.013222 -0.116677 -0.0215057 0.148174 0.0864245 0.111706 0.0990946 0.0516449 0.0724913 -0.0437068 -0.0619623 0.0990284 0.0638523 0.0153679 
-0.00776733 0.0174913 0.000572928 -0.0247311 -0.0230465 0.0327432 0.0264637 0.025761 0.0359808 -0.0277348 0.0184903 -0.00109992 -0.0020911 0.0175694 0.0342111 -0.00382995 
0.000457786 0.0283953 -0.00189279 0.0244059 0.0440006 0.00646083 0.0389433 0.0160203 -0.00349449 0.0125046 -0.0103653 -0.0121199 0.00382892 0.0459946 -0.00263641 -0.000483248 
0.161077 -0.0225977 -0.0436829 0.33948 0.25786 -0.257832 0.23734 0.0283408 -0.022138 0.139536 -0.0247729 -0.0677208 0.204923 0.281753 -0.0318595 -0.0353099 
-0.00106229 -0.00290321 -0.00415265 0.00574925 0.0117158 -0.00318604 0.00433978 -0.00131324 0.00275905 0.0210385 -0.00462338 -0.00844406 0.00348197 0.0024583 -0.0142846 -0.0070807 
-0.0189433 0.00565168 0.0161959 -0.0463924 0.0199543 0.042072 -0.0363063 -0.0176791 -0.0113187 0.0339357 -0.0181421 0.0698008 0.0426708 -0.0609708 0.0221342 0.0340124 
0.166888 -0.0644152 0.242714 0.0209917 -0.0203424 0.141897 0.022362 0.021673 -0.206913 -0.255063 -0.181976 0.00446741 0.110538 -0.0371205 0.209211 -0.170806 
0.127205 -0.0709934 -0.131507 0.261682 0.0613106 -0.20975 -0.0505026 -0.0365265 0.122099 0.135254 0.170247 0.108453 -0.0526723 -0.0657658 -0.271682 0.0989779 
-0.0198737 0.0235698 -0.0145721 0.0303765 0.0175621 -0.0171573 0.0227545 0.0139549 -0.020229 0.0510752 -0.0404258 -0.0048707 0.0135138 0.0244185 -0.0353056 -0.0282285 
2.63239e-05 -0.000184954 -0.000196743 -0.000273343 -0.000127245 -0.000113367 -0.000180778 4.78695e-05 -8.24702e-05 -0.000227602 -0.000239207 1.59432e-05 6.19627e-05 0.00026337 -0.000117772 6.41318e-05 
0.0291624 -0.0291712 0.00597111 0.0326846 -0.0152605 -0.0107671 -0.0486425 -0.0296456 0.057395 0.00803063 0.0235407 0.0695376 -0.0239855 -0.0553776 -0.0570242 0.0695884 
0.0436302 0.334314 -0.0774608 0.0477233 -0.0257651 0.070551 0.304744 0.1692 0.210057 0.0235384 0.290184 -0.137227 -0.0229978 0.237047 0.212182 -0.0702975 
0.297728 -0.0353873 -0.0941235 0.226226 -0.0121687 -0.201405 -0.363839 -0.159639 0.165493 0.207052 0.203362 0.330067 -0.034621 -0.261546 -0.218922 0.411959 
0.0834351 0.147289 -0.200452 0.10769 0.016927 -0.119113 0.0358665 0.0602644 -0.0469719 0.0621702 -0.0096148 -0.141974 0.0630053 0.0531934 -0.0290979 -0.144749 
0.0549985 -0.226939 0.233347 0.162299 0.164642 0.0229003 0.258287 -0.223246 0.168933 -0.268615 0.270334 0.0444324 0.234351 0.175962 0.365566 0.179246 
-0.0754036 0.254141 0.161758 -0.298893 0.123018 0.17886 -0.093456 -0.0323335 -0.0316632 0.239216 -0.103154 0.209075 0.180193 -0.116388 0.0863803 0.287944 
0.182612 -0.0569653 -0.136312 0.100019 -0.16811 -0.0555173 -0.13397 -0.0404143 0.351005 -0.163878 0.437708 0.177031 -0.181604 -0.104595 -0.0939843 0.152149 
-0.0551968 0.105478 0.0409148 0.0668164 0.166801 -0.0191191 -0.0353263 0.0701266 -0.0968643 0.344662 -0.137465 0.020881 0.144567 0.0244847 -0.104303 0.0855162 
-0.012256 -0.0110036 0.0649395 -0.0350872 -0.0284188 0.0404899 -0.00942089 0.0636542 -0.0211622 -0.0242564 -0.00945209 0.0336711 -0.0437522 -0.0262052 -0.00888156 -0.029184 
0.0330615 -0.0274184 0.0481095 0.010767 0.0071079 -0.0208757 0.00947713 0.0705023 -0.0206016 0.0347543 -0.0130582 -0.00221215 -0.0199473 0.0257578 -0.0494195 -0.0567589 
-0.211171 0.371053 0.0766394 0.550435 0.71618 -0.217656 0.616073 0.556937 -0.322956 0.660136 -0.276011 -0.180434 0.483998 0.612054 -0.0785903 -0.123417 
-0.434604 0.562585 -0.0800636 -0.567858 -0.262432 0.700488 0.430196 0.439191 0.692996 -0.289654 0.557815 -0.258167 -0.347462 0.467733 0.467027 -0.185872 
0.428386 0.235645 -0.04352 0.0593553 -0.0631677 -0.0541415 -0.0190884 -0.0237698 -0.091096 -0.0638059 -0.0742256 -0.141249 0.138885 -0.00644621 0.196369 -0.172694 
-0.192373 0.340665 -0.211207 -0.199468 -0.0573634 0.258215 0.292546 0.269494 0.194019 0.039001 0.146124 -0.26404 -0.120402 0.298598 0.141746 -0.147799 
-0.0613068 -0.0801717 0.0985023 -0.0826303 -0.0773019 0.0913303 -0.122406 0.0897123 -0.0710414 -0.0447809 -0.0659256 0.0399273 -0.125131 -0.0836859 -0.068576 -0.0399461 
-0.0512324 -0.0919147 0.2251 0.0200725 0.122476 0.0390739 0.0713008 -0.0206644 -0.0130065 -0.005051 -0.0123514 0.0249843 0.0844153 0.0959773 0.176797 0.0631836 
-0.0461423 -0.0242386 0.0620304 0.139325 0.0824875 -0.0350166 0.0629442 0.116392 -0.112344 0.0733923 -0.0742204 -0.054959 0.00845139 0.0451109 -0.0502854 -0.149819 
0.214904 0.186105 -0.0525889 -0.119765 -0.112639 -0.0742764 -0.131091 -0.0725932 -0.0693816 -0.101835 -0.102393 -0.0946586 0.0982534 -0.134267 0.118509 -0.09946 
0.125104 0.0312784 -0.083869 0.0856203 -0.00223036 -0.147742 0.00335351 -0.0543088 0.0287774 0.021355 0.0279618 0.0120872 -0.00416524 -0.00327093 -0.0642338 0.0618153 
0.567747 0.485603 0.0429311 -0.363476 -0.405014 0.351958 -0.451249 0.00876023 0.0608647 -0.0689988 0.10912 0.305428 -0.004584 -0.460068 0.134667 0.24522 
-0.0404471 0.0262302 -0.0353305 0.0569539 0.0648486 -0.0358286 0.0442247 0.0592692 -0.0462863 0.0778322 -0.0225372 -0.0403107 0.0590001 0.041769 -0.107094 -0.0579136 
-0.0912448 0.144329 -0.0212617 -0.0750028 -0.0188057 0.128002 0.112506 0.123057 0.102675 -0.0422782 0.0943414 -0.0757948 -0.0620787 0.110382 0.117239 -0.0300106 
-0.0632509 0.393565 -0.0976301 -0.302269 -0.0607596 0.18985 0.0618759 0.0830816 0.0117162 0.108938 -0.0602248 -0.162394 -0.0122426 0.116613 0.165269 -0.0855088 
0.0279163 0.24862 -0.142286 -0.194039 -0.186867 0.272809 0.182111 0.205276 0.216403 -0.173088 0.298446 -0.1729 -0.211868 0.188952 0.183925 -0.168449 
0.0859151 -0.450698 0.520164 0.35178 0.00876382 0.184002 0.0115459 0.376144 0.0708463 -0.0782941 0.15968 0.42227 -0.0706831 -0.0474494 -0.0912061 0.0382149 
-0.120039 0.045938 -0.0285162 0.486235 0.48478 -0.231584 0.343404 0.335541 -0.212514 0.490375 -0.220576 0.000248925 0.298587 0.353969 -0.170377 -0.0841301 
0.165021 -0.169162 -0.0290515 0.226571 -0.128995 0.00070048 0.0719675 -0.0683436 0.330119 -0.156027 0.352359 0.206333 -0.127648 -0.00737508 0.0407376 0.159236 
-0.107423 0.2959 -0.0326872 -0.300033 -0.218936 0.306727 0.0879659 0.176868 0.137211 -0.0778739 0.146866 -0.0627438 -0.128766 0.0737409 0.192641 -0.0611534 
-0.00528486 0.00519377 -0.0100527 0.0142358 0.0177751 -0.0223377 0.0115132 0.0229406 -0.00876995 0.0397771 -0.018766 -0.00772462 0.0112579 0.01027 -0.0126064 -0.0125673 
-0.377531 0.848333 -0.476683 -0.373241 -0.103165 0.604537 0.727934 0.614093 0.56976 -0.0656459 0.617411 -0.631525 -0.142284 0.828498 0.750621 -0.376025 
-0.121292 -0.0842489 0.0140768 -0.0133735 -0.0466282 0.0530761 -0.187292 0.410459 -0.122814 0.120369 -0.181664 0.171962 -0.196302 -0.109459 -0.352074 -0.0890741 
0.000147569 0.000222144 3.67339e-05 -3.77847e-05 -9.5746e-05 9.00426e-05 -0.000201258 2.3414e-05 0.000138501 6.84244e-06 8.69453e-05 9.70025e-05 0.000194041 1.24341e-05 -3.85902e-05 0.000147142 
0.168443 0.208685 -0.0401002 -0.103598 -0.0816323 0.00880023 -0.0236445 -0.0491315 -0.0504938 -0.0627982 -0.0802377 -0.132081 0.10252 -0.0393421 0.109945 -0.108852 
0.0577774 0.0409856 -0.00966717 0.0380592 -0.0289264 -0.0249963 -0.00514538 -0.0607825 0.033509 -0.0416321 0.0249645 0.0171493 0.00927776 -0.0278831 0.0260448 0.0247545 
-0.0712955 0.166792 -0.156358 0.181808 0.205553 -0.111553 0.203852 0.189559 -0.0891999 0.304979 -0.0986668 -0.170175 0.0420808 0.196686 -0.109118 -0.154812 
-0.11575 0.260642 0.00720207 -0.245616 -0.099993 0.237311 0.114371 0.111054 0.248775 -0.0137397 0.193444 0.0319781 -0.133382 0.0913145 0.111255 0.0141932 
-0.0518538 0.180891 -0.058922 -0.138254 -0.0633963 0.0642098 0.112019 0.0570533 0.0923712 -0.0569241 0.100477 -0.118119 -0.0915698 0.105867 0.0707618 -0.0801989 
0.292273 0.373205 -0.0175348 -0.172335 -0.0824432 -0.0354319 -0.125485 -0.126405 -0.0397815 -0.0451179 -0.0694764 0.0216342 0.22643 -0.139218 0.27019 0.0162582 
-0.0449733 0.153264 -0.024153 0.174539 0.298899 -0.127723 -0.00761121 0.08666 -0.115911 0.420541 -0.155851 0.0969156 0.171084 0.00762848 -0.161795 0.174288 
0.00935307 -0.0170505 0.0269635 0.00432515 0.0253692 -0.0106314 0.0299058 -0.0242084 0.01042 -0.0158616 0.0253057 0.00262999 0.021963 0.0265584 0.0359429 0.00880814 
0.200531 -0.382198 0.518899 0.54282 0.538927 -0.218005 0.652978 -0.268008 0.215778 -0.197975 0.378397 0.0152135 0.465922 0.478005 0.596377 0.210648 
-0.111919 0.277934 -0.244362 0.0607693 0.122622 -0.00217884 0.225328 0.19568 0.0297911 0.126868 0.0685378 -0.239166 0.02689 0.242912 0.0421852 -0.229929 
0.0522374 -0.0950654 0.177555 0.165514 0.154189 -0.07195 0.15315 -0.0799342 0.0526755 -0.0314686 0.0518378 -0.00117331 0.13646 0.137093 0.134914 0.0169359 
0.0750338 -0.0374064 -0.0342903 0.0653082 -0.0257225 -0.0493355 -0.063382 -0.0383785 0.0413104 -0.00977 0.0695588 0.0210534 -0.0382703 -0.0324522 -0.0422855 0.0891921 
-0.0940677 0.247583 -0.216113 0.520577 0.586594 -0.283107 0.456145 0.385181 -0.192931 0.642775 -0.212808 -0.300363 0.26395 0.455898 -0.164374 -0.251194 
0.0114556 0.0722781 -0.0389708 0.0691755 0.0588465 -0.0611957 0.0409127 0.0364844 -0.0583101 0.0588102 -0.0596997 -0.091396 0.0646422 0.0613539 -0.0335598 -0.0813414 
-0.101201 0.0442962 -0.0256559 0.181028 0.146928 -0.093834 0.117781 0.273318 -0.109132 0.162532 -0.112234 -0.0385088 0.0343411 0.106877 -0.12799 -0.219428 
0.174658 -0.119459 -0.101465 0.13726 -0.179813 -0.0996539 -0.209508 -0.113347 0.123729 -0.0764255 0.170273 0.132266 -0.12907 -0.147736 -0.122869 0.122075 
-0.0336974 -0.116323 0.0495294 -0.0541913 -0.019528 0.0516295 -0.0474996 0.0814521 -0.0274066 -0.00544378 -0.0112063 0.0642488 -0.0611223 -0.0409414 -0.0202459 -0.0696924 
0.0265932 0.00407313 -0.0300842 0.0084824 -0.00335834 0.140265 -0.052219 -0.00831927 0.159741 0.0487502 0.156313 0.177669 -0.0402503 -0.0469595 -0.0864411 0.160885 
1.21004 1.06817 -0.903188 -0.922081 -0.775733 -0.890463 -0.797065 -0.988675 -0.840773 -0.925991 -1.00502 -0.965283 1.23755 -0.767776 1.30208 -0.894099 
0.0298156 0.101657 -0.0290466 -0.0429361 -0.0329733 0.0383467 -0.0114915 -0.0476 0.0615137 -0.00427966 0.0344725 -0.0370985 -0.0271522 -0.0328357 0.0113384 -0.0191062 
0.0647986 0.0243419 0.317413 0.300705 0.162881 0.236623 0.548051 0.0050607 0.546114 -0.157397 0.566105 0.0143189 0.152293 0.450924 0.555591 0.143785 
-0.0179992 0.229754 0.00877393 -0.196997 -0.143351 0.216316 0.0472246 0.156997 0.132812 -0.0722353 0.0527413 -0.0772791 -0.0162888 0.0937326 0.217444 -0.152009 
-0.0618489 0.0274959 -0.016859 -0.0495818 -0.0423733 0.0439075 0.0623651 0.0364417 0.0347823 -0.0489312 0.069799 -0.0556454 -0.00172341 0.0465292 0.032514 -0.011515 
-0.0707801 0.106077 0.107545 -0.113845 0.0750067 0.0870636 -0.0641709 -0.0292039 -0.00296655 0.140401 -0.0610961 0.139297 0.111627 -0.0703936 0.00303224 0.182268 
0.0455946 0.0339674 -0.0275643 0.0124667 -0.0617395 0.000590442 0.00312073 -0.0285929 0.015004 -0.0250774 0.018922 -0.0415815 0.0110476 -0.00731209 0.00500592 -0.0203368 
0.0341364 0.125827 0.272584 -0.066565 0.0655489 0.27036 0.200308 -0.0360409 0.0874142 -0.143671 0.0618154 0.0847144 0.147439 0.0743641 0.352427 0.164676 
0.0110393 0.0172318 -0.107041 0.24786 0.110244 -0.163255 0.00456447 0.0887855 -0.0600914 0.200819 -0.0590681 -0.0316065 0.0778249 0.0393756 -0.239928 -0.0215968 
0.0735 -0.062283 -0.0199603 0.0818652 -0.0218801 -0.0430884 -0.0463411 -0.038869 0.0949497 -0.0319179 0.0954083 0.116537 -0.0603572 -0.0721875 -0.0721319 0.0749978 
-0.4933 -0.00921134 0.719019 -0.326429 0.0178094 0.806785 -0.113795 0.775685 -0.220727 0.300783 -0.218371 0.595397 -0.0301256 -0.0986069 -0.119679 0.041295 
-0.0146657 0.00389134 0.000921822 0.013468 0.0345539 -0.0126429 0.00948884 -0.00556407 0.0088243 0.0233946 0.00613531 0.0200208 0.00989665 0.0170879 -0.0159516 0.0264397 
1.04695 1.0375 -0.691037 -0.376899 0.206539 -0.327505 0.0600305 -0.0821209 -0.396794 0.697091 -0.473517 -0.667137 0.932366 0.0894216 0.798029 -0.368152 
-0.0145026 0.023532 -0.00214554 -0.00123988 0.0187487 0.0236161 0.0847959 0.0354077 0.0352434 -0.0175098 0.0197054 -0.0216276 0.0229942 0.0603445 0.040922 -0.0213209 
-0.0856551 0.349523 0.624226 0.00341009 0.341459 0.473536 0.106549 0.551777 -0.0878667 0.369914 -0.107932 0.471463 0.4039 0.0131067 0.188793 0.365746 
-0.334255 0.685109 0.617904 -0.420686 0.506177 0.482652 -0.27628 0.517521 -0.385785 0.815154 -0.457971 0.611947 0.619118 -0.231569 -0.0513033 0.554607 
-0.0108244 0.00106768 -0.0102152 -0.00358703 -0.00811421 -0.0130776 0.017135 -0.00109309 -0.0164139 0.0239296 -0.0199273 -0.0132008 0.0040113 -0.00806436 -0.00658416 -0.0372853 
-5.7271e-05 -0.0592415 0.0428003 0.0528023 0.0367031 -0.00827844 0.0543967 -0.0171756 -0.00636532 -0.0316306 -0.0195634 0.00528681 0.0226637 0.0113015 0.0384844 -0.0221289 
-0.0116549 -0.0909111 0.167046 0.220144 0.0459349 0.278101 0.312191 0.270742 0.35817 -0.152442 0.541763 0.237248 -0.0485306 0.278392 0.159867 0.14256 
0.271988 0.0486525 -0.0427253 0.0698764 -0.308784 0.189962 -0.158974 -0.0375802 0.434481 -0.276975 0.509216 0.245888 -0.297668 -0.0461182 -0.0922008 0.0682983 
-0.0159971 0.098566 0.00568318 0.0183154 0.0187295 0.0568709 0.110968 0.00865702 0.0199352 -0.0122303 0.0590972 -0.0089961 0.0132579 0.0692762 0.0379067 -0.00574128 
0.0234231 0.184227 0.0511889 -0.101237 0.0637595 0.0570774 -0.0945122 -0.054544 -0.0642865 0.105451 -0.0789703 0.0502462 0.174825 -0.0857545 0.0592811 0.148855 
-0.0350299 0.0583342 0.0112314 -0.072514 0.0110866 0.0676147 0.0202734 0.0127701 0.042117 -0.00169234 0.0195662 0.0232503 0.0114394 0.0250266 0.03714 0.0305643 
0.337731 0.163822 -0.0482412 0.000432519 -0.0516515 -0.0963679 -0.0230337 -0.208616 -0.00919799 -0.102972 0.0113163 -0.0336616 0.117171 -0.0595968 0.163687 0.0183274 
0.0438569 0.0775212 -0.0550101 -0.0305272 -0.00162672 -0.0421074 -0.00643398 -0.0389231 -0.0376148 -0.0111188 -0.0441387 -0.075963 0.0478483 0.0032374 -0.00186742 -0.0597503 
-0.0952467 0.273571 -0.0667782 -0.261369 -0.113116 0.230582 0.136434 0.0647948 0.120832 -0.118487 0.0949649 -0.131575 -0.065317 0.126821 0.234339 -0.0756873 
-0.0635753 0.653867 0.0375471 -0.0112623 0.534008 -0.0361718 0.255083 0.330389 -0.262573 0.623549 -0.278566 -0.124088 0.490455 0.29484 0.0676051 0.00784311 
0.0285801 0.0512333 -0.0438192 -0.022474 -0.014669 -0.00806283 -0.022981 -0.00181909 -0.0269049 0.0419222 -0.0432402 -0.0151319 0.0588353 -0.0246822 0.00955284 -0.0114912 
0.234393 0.707616 -0.368767 0.0750662 0.120253 -0.139925 0.321177 0.191611 -0.034899 0.217772 -0.0715156 -0.463922 0.176431 0.303869 0.0819698 -0.35642 
0.2724 0.0528325 -0.227432 0.0364769 -0.177556 -0.154747 -0.117959 -0.0818596 0.0977724 -0.124831 0.0936971 -0.0234016 -0.12055 -0.105929 -0.131135 0.00886919 
0.186695 0.0349897 -0.00731095 -0.00118052 -0.179562 -0.00994448 -0.187704 -0.0184011 0.064751 -0.115373 0.063598 0.0805406 -0.0528583 -0.167308 -0.0128566 0.0368194 
-0.116768 0.365357 -0.0170423 -0.0953524 -0.0543004 0.346719 0.272074 0.225359 0.274608 6.58688e-05 0.246754 -0.0387417 0.0100355 0.26182 0.253713 -0.0192357 
-0.0428708 0.0150059 0.0152374 -0.0601512 0.000244143 0.0193836 -0.0194954 -0.00713203 -0.00678539 0.0356249 -0.0164107 0.0310867 0.0250161 -0.0124671 0.00845598 0.0419586 
0.0158107 0.0124826 0.0668271 -0.0812486 -0.0787461 0.0600293 -0.111104 0.0859132 -0.0496015 -0.0516415 -0.081944 0.0526974 -0.00169015 -0.110634 0.00184425 -0.0452201 
0.0663987 0.0399768 -0.00407915 -0.0254421 -0.0571618 -0.00616278 -0.0218911 -0.0367231 4.19945e-05 -0.00733043 -0.00827469 -0.0295476 0.0380136 -0.0346685 0.0510773 -0.0352087 
0.103708 0.142788 -0.0378877 -0.125574 -0.0971907 0.0194749 -0.141107 0.0948945 -0.210545 0.015732 -0.283279 -0.142927 0.0370923 -0.0880678 -0.0125135 -0.274513 
-0.0316962 -0.0961303 0.0154012 -0.081821 -0.122165 0.129518 -0.211826 0.168005 -0.102152 -0.0135129 -0.127203 0.0645712 -0.215456 -0.152222 -0.117756 -0.190525 
0.0353999 0.00678565 -0.0823085 0.0375867 -0.104048 0.0377991 -0.0122211 0.00536246 0.0498421 -0.0764458 0.0533098 0.000548862 -0.0841418 -0.0142171 -0.018409 -0.0157824 
0.0566138 0.0183639 -0.0289768 -0.00233387 -0.102463 0.0235161 -0.0417299 -0.0204628 0.123278 -0.0650349 0.102941 0.0396735 -0.0932218 -0.0376228 -0.00127005 0.00838627 
0.181047 0.390681 -0.0813762 -0.116614 -0.0482845 -0.0168741 -0.0325643 -0.0572103 -0.00825612 0.0286896 -0.0493879 -0.0572151 0.149882 -0.0161036 0.204792 -0.0549065 
-0.0417621 0.0428983 -0.00485506 0.0451179 0.0660937 -0.0748044 0.0431269 0.0749504 -0.0586877 0.153263 -0.106082 -0.0276267 0.021335 0.0623201 -0.0577329 -0.0239743 
0.129424 0.114464 -0.086201 -0.0925336 -0.148416 0.0359875 -0.136361 0.0117284 0.0248503 -0.0691853 0.0355755 -0.04342 -0.0704726 -0.0984108 0.0131696 -0.0190583 
-0.339457 -0.475454 0.760474 -0.254521 -0.274513 0.737459 -0.233984 0.873042 -0.153081 -0.203199 -0.207526 0.597957 -0.400795 -0.222885 -0.324205 -0.23765 
0.0657709 -0.151867 0.114673 0.140596 0.070091 -0.0847917 0.0983004 -0.0762274 0.158342 -0.0993647 0.203816 0.050723 0.0368881 0.0557211 0.0589054 0.124022 
-0.0019049 0.228528 0.142323 -0.164875 -0.155495 0.321034 0.0269103 0.279728 0.0344822 -0.0772251 0.0300131 0.0374873 -0.150491 0.0112794 0.0759073 -0.0652405 
0.699458 -0.194115 -0.474887 0.880777 -0.0384279 -0.501988 0.22928 -0.0828854 0.692561 0.0241302 0.769272 0.299482 -0.282246 0.410564 -0.167381 0.352953 
-0.0206814 0.0771155 -0.0423053 0.396124 0.358189 -0.154786 0.410436 0.0836216 -0.0302211 0.215985 -0.0189958 -0.197677 0.22166 0.400231 0.0265769 -0.153456 
0.136167 -0.15259 -0.0118421 0.120557 -0.0291573 -0.0664738 0.00395072 -0.0933696 0.107653 -0.114846 0.11861 0.13135 -0.0252475 -0.0111507 -0.0166915 0.118522 
0.0531317 0.0156921 0.00364123 0.011662 -0.0374066 -0.0266784 -0.0488503 -0.0422891 0.0354592 0.0060337 0.0191452 0.0474032 0.00444457 -0.059842 -0.0234628 0.0444616 
0.0847309 -0.0214249 0.127376 0.143163 0.110714 -0.114325 0.159643 -0.134983 0.0420982 -0.0459552 0.0959196 -0.0612319 0.157643 0.102442 0.173158 0.0327978 
0.0118282 -0.1672 0.134338 -0.0152665 -0.0871264 0.165073 -0.0417724 0.153956 -0.0186278 -0.0796012 0.00893222 0.134058 -0.124407 -0.0561484 -0.0407398 -0.116493 
0.0938722 -0.0648538 -0.0542261 0.0554322 -0.0908017 -0.0209193 -0.0530272 -0.0321508 0.0831325 -0.0577775 0.133659 0.0699857 -0.0610513 -0.0581923 -0.0711445 0.048119 
-0.153987 0.101496 0.246416 0.0380242 0.328728 0.213527 -0.119675 0.0360858 -0.000937022 0.345258 0.0248011 0.341836 0.249156 -0.0718432 -0.0502964 0.431558 
0.850993 0.241399 0.168279 0.300623 0.230913 -0.213056 0.211315 -0.530347 0.368557 -0.159069 0.461807 0.144593 0.488448 0.173103 0.602887 0.521924 
-0.023179 0.0204438 -0.0590417 0.0449612 0.0883477 -0.0694956 0.0316079 0.0606237 -0.0598748 0.136455 -0.0775816 -0.028235 0.0276165 0.0330226 -0.0993602 -0.0508413 
0.0507341 -0.046523 -0.0295293 0.0529434 -0.00994156 -0.0479676 -0.0369102 -0.0382029 0.0577506 -0.0129071 0.0788328 0.065914 -0.0199573 -0.0262588 -0.075126 0.0496619 
-0.168572 0.4292 -0.00994988 -0.180615 0.0662465 0.37267 0.292966 0.25722 0.249603 0.0790161 0.215974 -0.0464264 0.024743 0.288825 0.291487 -0.0138649 
0.0479227 -0.0157099 0.0820793 0.138735 0.106048 -0.138483 0.158231 -0.0497899 -0.0332523 0.00268045 0.0165374 -0.078908 0.116758 0.115773 0.0870842 -0.0111405 
-0.0266147 -0.0876498 0.0785547 -0.0351041 -0.0360346 0.112817 -0.0815936 0.0525829 -0.010027 -0.0265971 -0.01942 0.0750817 -0.0669207 -0.0186838 -0.0169056 0.00866607 
-0.00118986 0.0128105 -0.0249662 -0.00435484 -0.0200876 0.0223878 0.0145804 -0.000172433 0.0527171 -0.0279108 0.0178462 -0.0205564 -0.0117602 0.019937 0.00936987 -0.00726683 
0.00114008 -0.000523221 -0.00483856 0.0027661 -0.00299192 0.00324557 -0.00518558 -0.0059088 -0.00621813 0.00689255 0.00512485 0.00966037 -0.00795973 0.0015923 -0.000754805 -0.0179333 
-0.032568 -0.0249481 0.0447185 0.100123 0.0648633 -0.047424 -0.000486882 0.0931185 -0.0739456 0.160735 -0.107294 0.0409972 0.00079965 -0.0240233 -0.116887 0.0199345 
0.137324 0.125088 -0.113657 0.0409949 -0.0940545 -0.0114858 -0.0481095 -0.0808514 0.0279712 -0.00778712 0.0288509 -0.0506151 0.0457643 -0.0127259 0.091786 -0.035066 
0.0872346 0.0357963 -0.103304 -0.0528862 -0.145101 0.0476875 -0.175994 -0.0607577 0.308699 -0.0337878 0.263735 0.227826 -0.107515 -0.175176 -0.112832 0.230261 
-0.0271609 0.032088 -0.0051399 0.0431809 0.0429582 -0.0248977 0.0179922 0.0207209 0.00512048 0.069028 -0.0365858 -0.0336847 0.034066 0.0165252 -0.0464203 0.0190192 
0.0149425 0.0361979 0.173528 0.0872952 0.070843 0.0918954 0.18156 0.019125 0.134317 -0.0777325 0.190234 0.0768995 0.0721097 0.132007 0.257746 0.104803 
0.057352 -0.044985 -0.0180825 0.0402024 -0.0918146 0.027999 -0.0516805 0.0110965 0.104052 -0.0381407 0.0926563 0.147932 -0.100509 0.0200815 -0.0969347 0.0172145 
0.174731 -0.261322 0.536406 0.378295 0.316464 0.0575356 0.502933 0.0089821 0.125903 -0.139933 0.241701 0.0241579 0.284159 0.398149 0.350924 -0.0491259 
0.00539138 -0.0398843 0.0359294 -0.00353698 -0.00371217 0.0400007 -0.000844551 0.0165099 0.00985542 -0.0125384 0.00171603 0.030253 -0.0390939 -0.0135059 -0.0271243 -0.00416914 
-0.00720995 0.0748461 0.0974557 0.0388805 0.076631 0.139218 0.294649 0.0789951 0.361712 -0.0479863 0.30959 -0.00796914 0.0177917 0.232163 0.241001 0.0144313 
0.164952 -0.137087 -0.167386 0.274866 -0.0845108 -0.146823 -0.163752 -0.0809927 0.101466 0.0757907 0.1785 0.074803 -0.0144877 -0.152607 -0.242279 0.0826717 
-0.227915 -0.195735 0.195603 -0.137253 -0.264451 0.302594 -0.109609 0.376095 -0.0724866 -0.113648 -0.0552926 0.181729 -0.403191 -0.106913 -0.0682258 -0.184385 
-0.251104 0.329121 -0.0626342 -0.102861 -0.0301428 0.28901 0.282052 0.297349 0.30369 -0.0868443 0.356878 -0.101854 -0.145977 0.323188 0.291257 -0.0974972 
0.0854198 -0.0178352 -0.0444819 0.000690091 -0.0617499 -0.0275067 -0.17105 -0.0626365 0.111574 0.0386445 0.0676334 0.161547 -0.0253334 -0.130675 -0.126208 0.221617 
2.62774e-05 -8.99698e-06 6.11085e-05 -2.86386e-05 7.68853e-05 -8.50547e-05 1.30353e-05 -7.87508e-07 -5.61363e-05 0.0002168 -2.73793e-05 8.90401e-05 -0.000176999 -0.000217065 0.000256988 -1.7606e-05 
-0.00987175 -0.0756025 0.15282 0.10109 0.169816 -0.072226 0.251631 -0.102022 0.0021606 -0.024067 0.0344687 -0.0953639 0.171571 0.151524 0.214005 0.0132244 
0.0425539 0.18615 -0.0574703 -0.0828005 -0.00909774 0.0266249 0.086768 0.0370443 0.0168172 -0.0186999 0.0125808 -0.0949735 -0.0271612 0.0880613 0.0622237 -0.117993 
0.0537468 -0.233111 0.191009 0.220209 0.154288 -0.0314076 0.161609 -0.0877028 0.134154 -0.103982 0.139844 0.141009 0.107613 0.152334 0.223772 0.149404 
0.0476183 -0.249057 0.265966 0.224413 0.183213 -0.0600336 0.241722 -0.210517 0.0940269 -0.139473 0.172764 0.0352707 0.179291 0.151557 0.301065 0.153689 
-0.0561419 -0.0804798 0.238159 0.129854 0.171991 0.0164978 0.236294 -0.0488098 0.00465869 -0.0163727 0.00787057 0.037376 0.194711 0.157408 0.192873 0.0809969 
0.330033 0.0299311 -0.17689 0.177988 -0.111757 -0.196291 -0.193608 -0.118515 0.109761 -0.026741 0.192432 0.0786557 -0.0592601 -0.184033 -0.172616 0.0501467 
-0.0114428 -0.0074688 0.118572 -0.0428076 0.0508019 0.0571803 -0.092721 -0.0243169 0.00258575 0.0314852 0.015372 0.110959 0.0787029 -0.0975367 0.0250412 0.166833 
0.113153 0.193449 -0.0566137 -0.0578691 -0.034494 0.0116555 0.0259576 -0.0707545 0.00647306 -0.0356504 0.0122047 -0.0951724 0.0337155 0.00874756 0.110336 -0.0989529 
0.244893 -0.256212 0.408481 0.445653 0.338233 -0.0950275 0.496436 -0.225359 0.219015 -0.143768 0.325314 -0.0140533 0.416628 0.341743 0.542249 0.179214 
0.0159507 0.0120162 -0.0259613 0.000902266 0.012248 -0.018868 -0.00295416 0.0055089 -0.00920568 0.0222392 0.00658362 -0.023688 0.00543086 0.0112214 -0.0265089 -0.017854 
0.338431 0.44856 -0.226616 -0.0547717 -0.122637 -0.191357 -0.0223336 -0.129742 -0.146997 0.00393123 -0.190232 -0.262056 0.233846 -0.0132303 0.142548 -0.228549 
-1.06388 0.918043 0.927502 -0.95682 0.958104 0.973112 -0.357618 0.837621 -0.454041 0.99746 -0.917668 0.887531 0.959091 -0.443154 0.283321 0.996972 
-0.00660963 0.0416165 0.00309242 -0.0164837 -0.0161519 -0.00808969 -0.000487398 -0.0187028 0.000605598 -0.0151133 0.000932814 -0.0203099 0.0264075 8.08992e-05 0.0109685 -0.0209174 
-0.120107 0.13239 -0.172403 0.180068 0.211909 -0.214216 0.156206 0.179647 -0.137732 0.251813 -0.14357 -0.158751 0.0779327 0.149295 -0.189581 -0.103002 
0.0255772 -0.0813723 0.0666936 0.0945829 0.0482 -0.0346322 0.033054 -0.053822 0.0111409 -0.0359184 0.0260802 -0.0139914 0.0557767 0.0409325 0.0538908 0.0165276 
0.167235 -0.0611547 -0.0768898 0.107067 -0.119091 -0.0158708 -0.0144233 -0.0978254 0.155455 -0.0938001 0.254983 0.102934 -0.0576239 -0.0512373 -0.008069 0.0980782 
-0.0121043 -0.319566 0.168116 -0.0202248 -0.351188 0.167092 -0.290357 0.164589 0.124502 -0.254246 0.0942556 0.508133 -0.3842 -0.272899 -0.260037 0.123114 
0.0316294 0.0324965 -0.0024748 -0.0373398 -0.0169494 -0.0147343 -0.0252725 -0.0280415 -0.00770141 -0.0186863 -0.0263842 -0.0241241 0.0166676 -0.0244641 0.0280967 -0.0400395 
0.298057 0.353864 0.121267 0.271392 0.517296 -0.0895524 0.216148 0.0222856 -0.0903909 0.394436 -0.0907419 0.109086 0.552945 0.147489 0.234926 0.200833 
-0.00200487 0.0480511 -0.0462252 -0.0233142 -0.0653956 0.0420515 0.00795309 -0.00275544 0.133818 -0.0347712 0.116536 0.0282612 -0.0181275 0.0096256 0.0167939 0.0764037 
-0.0260041 -0.0902294 0.0910037 -0.0353776 -0.0519963 0.0688631 -0.0152992 0.133479 -0.0016479 -0.0167898 -0.00982128 0.0319911 -0.0844534 -0.0182728 -0.0599144 -0.0403431 
-0.0767029 -0.422592 0.733639 -0.121236 -0.238649 0.596095 -0.0692597 0.653157 -0.00660566 -0.332264 -0.0534159 0.487062 -0.32403 -0.0883995 -0.0781044 -0.28975 
0.220938 -0.232594 0.144377 0.495395 0.33672 -0.167129 0.0266286 -0.125225 0.0524548 0.331053 0.113875 0.428332 0.323602 -0.0226269 -0.0508493 0.458742 
0.54514 0.575358 -0.264796 -0.230478 -0.130491 -0.211834 -0.0592986 -0.002129 -0.267451 -0.0953 -0.252163 -0.34301 0.364608 0.0501799 0.45212 -0.416616 
-0.218853 0.180181 0.250152 -0.220477 0.20836 0.255742 -0.167594 -0.020913 -0.069248 0.313281 -0.189276 0.332754 0.278082 -0.134975 0.0189825 0.409274 
-0.00119994 -0.00112846 -0.000474336 0.00380405 0.00594792 -0.00320467 -0.014053 -0.00292722 0.00584102 -0.000678114 0.0123421 0.00724503 0.00229088 0.000147195 -0.0143073 0.0107562 
0.128338 0.207395 -0.172944 0.442018 0.291496 -0.262115 0.233087 0.165117 -0.0291143 0.473539 -0.0456508 0.0634383 0.292166 0.190178 -0.198587 0.0765517 
0.434018 0.28859 -0.14216 0.0196991 -0.128057 -0.137861 -0.0702702 -0.226871 0.199577 -0.107854 0.216242 0.0327566 0.05005 -0.0749917 0.0158358 0.0613506 
0.130922 0.309866 -0.111731 -0.190475 -0.0472102 0.0238029 0.0290344 -0.0417981 -0.0207136 -0.069367 -0.026747 -0.18077 0.105459 0.0391189 0.251153 -0.14723 
0.0268061 -0.0201867 -0.0142488 0.0348603 -0.00365192 -0.0178231 0.00211329 -0.0173419 0.028117 -0.000821301 0.0486493 0.0355513 -0.0192979 -0.0290321 -0.0211126 0.0429647 
0.103576 0.163038 -0.0350049 -0.0531734 -0.0368138 -0.0631198 -0.00244161 -0.0341314 -0.0471487 -0.0296833 -0.0262255 -0.0489312 0.0710099 -0.0063957 0.0758607 -0.0835289 
0.0249191 0.0870695 -0.0387366 -0.0147281 0.0527749 0.0192921 -0.0257143 0.0579306 -0.091527 0.106463 -0.124101 -0.00196424 0.0509079 -0.0403699 -0.0405755 -0.0559771 
0.106424 0.0832651 -0.0550594 -0.023274 -0.0280912 -0.0355309 -0.0397869 -0.0185576 -0.0674492 -0.0123101 -0.0578102 -0.0643053 0.0979441 -0.0611703 0.109951 -0.0577738 
-0.0831608 0.00382057 0.0316198 -0.0806602 -0.0869408 0.138738 0.0540187 0.0951582 0.0341056 -0.0503594 0.0497682 0.0144813 -0.117 0.0394975 0.0313033 -0.132937 
-0.273507 0.449511 0.36079 -0.125245 0.539811 0.253788 -0.214758 0.140802 -0.266733 0.715822 -0.276622 0.360376 0.554657 -0.141759 -0.0244406 0.477184 
-0.0015112 -0.252158 0.678232 0.144364 0.0740088 0.385998 0.14857 0.2046 -0.0850729 -0.19954 -0.020102 0.328864 0.165873 -0.00218507 0.18645 0.0399385 
-0.0544602 -0.0395121 0.222575 -0.0932538 0.00178933 0.191592 -0.0776685 0.137596 -0.0399361 0.0255151 -0.0313649 0.181755 -0.0295676 -0.0721387 -0.00363399 0.0920239 
0.172306 0.0368196 -0.0472307 0.00770896 -0.0712233 -0.0365798 -0.056253 -0.0943366 0.0324508 -0.0818927 0.0577118 0.0278185 0.0516378 -0.0706789 0.0341038 0.00286525 
0.321993 0.32579 -0.143989 -0.0623367 -0.102083 -0.106393 -0.0712931 -0.208365 -0.043521 -0.120156 -0.0704225 -0.164543 0.208305 -0.0449393 0.292156 -0.171262 
-0.0178181 -0.126674 0.102946 0.00129839 -0.043031 0.0898805 -0.0593926 0.115145 -0.00839636 -0.0210153 -0.0274486 0.110537 -0.0778741 -0.0113517 -0.111726 -0.0108316 
0.233029 -0.0900149 0.154009 0.223684 -0.12064 0.145795 0.130369 0.139698 0.322057 -0.301549 0.367408 0.170934 -0.16263 0.0643731 0.209513 0.0494885 
0.0343447 0.0453237 0.0107125 -0.0379728 -0.0121358 0.0053026 -0.0326958 -0.0171025 0.0102813 -0.00463199 -0.0131927 0.0154319 0.0220706 -0.0133122 0.00445546 0.0152901 
0.165409 0.111793 0.206285 0.0202898 0.158662 0.0602765 0.184689 -0.188026 0.165156 -0.136707 0.160067 0.00598355 0.315613 0.122546 0.424338 0.209834 
0.0650653 -0.0218451 0.100968 0.100994 -0.0128534 0.0632658 -0.0223986 0.149377 -0.0748266 0.026145 -0.0896552 0.0151497 0.0379369 -0.0103871 -0.0694149 -0.0987816 
0.237093 -0.053881 -0.120206 0.160863 -0.0740564 -0.138276 -0.0525854 -0.11623 0.0980629 -0.0373764 0.20127 0.0949644 -0.112269 -0.0255708 -0.128453 0.140204 
0.119284 -0.382014 0.049799 0.456357 -0.0719181 -0.0233007 -0.174885 0.466239 0.126101 -0.011862 0.221014 0.319782 -0.413719 -0.112652 -0.526401 -0.046085 
-0.0785182 -0.0357746 0.130336 -0.0612986 0.00727822 0.115529 -0.00491916 0.0616556 -0.0310998 0.0450931 -0.0523345 0.118472 0.0104685 -0.00498976 -0.022197 0.0497011 
-0.198678 -0.199415 0.428781 -0.118689 -0.0507115 0.343301 -0.108945 0.185414 -0.0492917 0.0320793 -0.0968895 0.401596 -0.0665368 -0.143141 -0.0758168 0.115258 
